nep4_zbl 4 Li C O F 
zbl 1 2
cutoff 6 5 113 69
n_max 4 4
basis_size 8 8
l_max 4 2 1
ANN 80 0
  2.9280241e+00
 -2.0060942e+00
  1.6708177e+00
 -2.9563097e-02
 -2.9770827e-03
 -5.6428826e-01
 -9.9427611e-01
 -9.3324518e-01
 -1.4569242e-02
 -4.2306796e-01
 -3.6085454e-01
 -4.1303554e-01
 -3.3454124e-02
  1.2784797e-01
  7.4489407e-02
 -2.4658532e-04
 -3.1614456e-01
 -8.1158245e-01
 -1.5220957e-01
 -1.0152860e+00
 -1.3255474e-01
 -4.6146908e-01
 -6.5520197e-01
  7.6934643e-02
  3.6327374e-01
 -6.2298391e-04
 -4.1650003e-04
 -7.3621253e-05
 -2.3407889e-04
 -2.0449778e-01
 -1.7795441e-05
 -1.8512920e-04
  2.8677830e-03
 -1.1290052e-04
 -5.1126928e-05
 -9.1811603e-01
 -7.7447784e-04
  1.3561257e-04
 -3.2999148e-03
  1.1808336e-01
  1.7485053e-03
  1.6208579e-04
  5.7283521e-04
  9.0060254e-05
  7.3489391e-05
 -1.0886586e-04
 -8.2334636e-06
 -2.5488123e-01
  8.6317625e-04
 -3.1521419e-04
  7.5394215e-05
 -3.9719429e-04
 -1.7998747e-04
  1.4352228e-02
 -4.6828593e-04
  9.7738300e-04
 -2.0953480e-04
  4.6765171e-03
 -2.8871774e-04
 -3.3566028e-02
  8.0773665e-05
 -1.0823391e-05
  7.5515406e-04
  6.1109405e-02
  2.2042364e-04
  2.3744621e-04
  9.9374258e-05
 -3.9829494e-04
 -1.2447640e-06
 -8.5541855e-05
 -5.0983095e-01
  1.3525604e-03
  1.8453108e-02
 -3.7287155e-01
 -1.1880582e-03
 -2.2668567e-01
 -4.9797717e-01
  2.5413791e-04
  4.1563398e-01
 -1.6627947e-02
 -2.9926107e-04
 -3.5584107e-01
 -2.0813784e-03
  6.2672573e-01
 -1.2212823e-01
 -1.3920704e-01
 -1.5111279e-01
 -3.1544046e+00
 -1.9063969e-05
  6.1648858e-01
 -4.4490810e-02
 -1.8517864e-01
 -1.2721980e-02
  5.7114958e-05
 -3.3427563e-01
 -5.5364030e-04
  3.0768308e-04
  2.2734754e-05
  3.7585567e-05
 -1.7083638e-03
  1.7372606e-04
  2.2271422e-06
  5.8204576e-04
 -1.3230137e-04
  3.3230093e-04
 -6.7682064e-04
 -3.3851652e-04
 -1.0944711e+00
  6.3014299e-01
  1.8764318e-05
 -1.0099247e-05
  9.9303266e-03
 -2.2513128e-04
 -9.3704963e-05
 -3.4287776e-04
  1.1524996e-03
  3.2313954e-02
 -3.0874528e-04
  3.7802017e-04
 -5.9948503e-03
  1.1808487e+00
  9.6544839e-04
  4.9868663e-04
 -2.2107930e-04
  3.9736813e-01
 -5.3912430e-04
  5.9042085e-04
  1.8511269e-04
  1.1467625e-04
 -4.6990782e-01
 -4.4243596e-03
  3.6589045e-05
  4.9607508e-04
 -3.4915767e-05
  3.2052488e-04
 -1.1108185e-03
  1.1148922e-04
  9.2334310e-05
  9.2634451e-05
  1.3954713e-03
 -4.8727849e-01
  5.0077762e-07
 -6.2013721e-01
  5.4229971e-02
 -6.9007758e-05
 -1.1851300e-04
  7.2501553e-04
 -3.1111491e-04
 -3.1602124e-04
 -4.3980453e-02
 -7.9796519e-05
  7.6160213e-05
 -5.1186802e-05
  4.5241195e-01
  3.3975841e-04
  3.6797745e-05
  6.6054432e-04
 -2.3769094e-04
 -2.6615569e-04
  2.1470845e-01
  1.5940457e-03
  2.3429956e-04
  4.2279133e-01
 -5.2212665e-05
 -2.7787018e-01
  5.3613778e-04
 -3.1647590e-04
 -2.3264557e-04
 -6.0284493e-04
  7.7033845e-05
  9.8312812e-05
 -3.4109646e-04
  2.7963464e-04
  1.0131967e-05
 -2.4939046e-04
 -1.1313080e-01
  7.2245806e-01
  9.7045943e-04
  4.0855902e-01
  2.0054823e-03
 -9.0770700e-05
  3.3830223e-04
 -1.8751291e-05
  1.0710506e-04
 -4.3534881e-01
  2.7759545e-04
 -1.8342531e-04
 -4.2919599e-02
  7.6459104e-04
  2.7038578e-03
  4.1369317e-04
  4.4041663e-02
  2.1546228e-04
 -2.6993970e-03
  3.4496188e-01
 -1.6249668e-04
  6.9943536e-04
  2.6075090e-03
  6.9880713e-05
  3.7052462e-01
 -1.3413010e-04
 -3.9734339e-04
 -2.1868113e-04
  9.8634139e-04
 -4.3577984e-05
 -6.6498280e-05
  1.0623351e-04
 -7.2041134e-05
 -2.7087374e-04
  5.1928376e-04
 -4.0062939e-04
  2.1171858e-04
 -5.6062597e-01
  4.6770033e-04
  4.0711993e-06
  4.1722643e-04
 -3.5632262e-04
  1.3188508e-04
  6.1057560e-04
 -7.0873240e-04
 -8.3177298e-04
 -2.6873514e-04
 -1.5952725e-04
  5.3830608e-04
 -8.3162767e-08
  7.4571180e-05
 -1.0658582e-04
 -4.7405498e-04
 -1.3409033e-04
  4.8234183e-01
  9.3063121e-05
  4.0351192e-04
 -7.0393033e-04
 -9.7612553e-07
 -3.8754877e-01
  9.3861063e-06
  6.1988557e-04
 -1.0052980e-05
  1.5861679e-05
 -3.0056364e-04
  3.8095415e-02
 -4.9316249e-04
  9.9814592e-05
  2.7150146e-04
 -1.4581354e-04
 -2.9323148e-04
  1.3694074e-04
  6.4957084e-04
  9.5053174e-06
  1.0068908e-05
  1.9415664e-05
  9.5497329e-05
 -8.4941500e-01
 -4.4578090e-05
 -3.2972780e-04
  2.0794343e-04
  1.0729381e-04
 -1.3701069e-04
  1.6994181e-04
 -3.1277301e-05
 -3.5657391e-05
 -1.1626512e-04
  1.1411271e-01
  6.0227915e-04
  9.5021829e-02
 -8.5248219e-05
  2.4897719e-04
  1.7119510e-01
  6.5545656e-04
  4.4347379e-01
  1.2354682e-04
  4.5040859e-05
  4.5719953e-05
  4.2474622e-04
  2.7895509e-04
 -1.4988518e-04
  7.2869885e-04
  3.7158729e-04
 -1.8126128e-05
 -6.1955198e-04
 -1.1717700e+00
  5.2335307e-02
  4.0283165e+00
  6.8015772e-01
  3.3428478e-01
  3.5316602e-03
 -8.1589511e-05
 -4.8284270e-03
 -7.8844421e-02
  2.1946174e-04
  3.3709098e-04
  3.0247993e-03
  2.7193192e-03
  2.0433335e-04
  4.7732925e-01
  3.3784745e-05
  1.8537957e-03
 -2.3850119e-04
 -7.5642580e-05
  5.3667581e-01
  4.5538154e-01
  4.8354626e-04
  8.9236637e-05
  2.8013031e-04
 -3.1165415e-01
  1.5078073e-04
  1.9574436e-05
  8.8150948e-05
  1.2084887e-04
 -1.2061710e-04
 -7.6778619e-05
 -4.4165866e-04
 -2.5463951e-05
 -1.6270859e-04
 -2.4276572e-04
 -5.4030784e-04
 -2.0497142e-04
  2.2424707e-05
  4.0275668e-04
 -1.0281084e-04
 -9.9190533e-05
  1.0481108e-04
  4.8628801e-05
  5.6371748e-05
 -3.8357390e-04
 -2.0199986e-04
  4.5208979e-04
  8.1925115e-05
 -2.0788839e-05
 -1.1563465e-04
 -1.8850015e-04
  1.7344768e-04
  5.7186768e-05
 -2.8185017e-04
 -5.0454825e-04
 -1.0208006e-04
 -2.8229872e-04
 -2.0436010e-04
  4.9342259e-05
  2.4781667e-04
  8.8227884e-05
 -9.6208201e-04
 -8.7324635e-04
  1.0431126e-04
  4.5866080e-05
  3.4012483e-05
 -7.5553886e-05
 -1.8928370e-04
 -1.2866290e-04
  1.8278483e-04
 -2.4686686e-03
  2.3389500e-04
  2.4962192e-04
  2.3512344e-04
  9.8028540e-05
  3.5877659e-03
  3.4264670e-04
 -2.9810701e-04
 -1.3285795e-04
 -1.5109619e-01
  8.2088523e-02
 -2.1628241e-05
 -6.6220367e-05
  2.7472855e-04
 -1.0747887e-04
  1.7654125e-04
  4.2529911e-04
  4.9016569e-05
  2.7320583e-04
  4.3874930e-04
 -1.5874107e-04
  1.5093386e-04
  2.1299536e-05
 -2.3794701e-04
  5.8249265e-01
  6.5768858e-05
  5.8928679e-04
  2.0852378e-05
  3.2704505e-01
 -5.0356140e-04
  2.2509348e-04
 -1.0554108e-04
 -2.0066967e-04
  1.8316281e-03
 -1.0207528e-04
  1.1479825e-03
  2.5329535e-04
 -1.3537319e-04
 -1.3011682e-04
 -5.6387257e-04
  1.9545198e-05
 -1.7855816e-04
 -4.8755632e-05
 -7.9942896e-05
 -5.5402481e-05
 -5.3654570e-04
 -9.9939876e-05
 -1.5445495e-01
 -4.0655730e-05
 -1.6573982e-04
 -2.6260828e-05
  3.6658059e-04
  1.4460264e-04
 -5.1994717e-05
  1.5272635e-04
  1.7821070e-04
 -8.5524999e-04
 -6.8255766e-05
 -7.1184149e-05
 -9.0953760e-04
 -1.9090604e-04
  3.7429932e-01
  3.8748240e-04
  2.9213500e-04
 -1.6985847e-04
  4.3230317e-05
  5.1636020e-05
 -2.0714216e-04
  4.8564834e-05
  1.3185461e-03
  4.9670050e-03
 -1.9802959e-01
  2.5284788e-01
 -3.2274562e-01
 -6.0273007e-02
 -6.4677227e-04
 -1.2652449e-04
  3.9217991e-04
  2.0081823e+00
  6.4060226e-04
 -8.4289373e-04
 -1.1321775e+00
 -9.5899906e-03
  4.4229956e-04
 -1.7811989e-02
  7.5632124e-05
 -1.3141667e-03
 -1.3302379e-05
 -4.2193386e-04
  1.5106096e+00
 -7.9610059e-04
 -1.3440626e-04
  4.6583498e-01
 -2.2441226e-04
 -2.0205134e-01
 -1.0106233e-03
 -4.3977294e-03
  3.4613440e-06
  8.5729192e-04
 -1.7867936e-03
  1.3693799e-04
 -1.5536095e-04
  2.0095347e-04
 -1.9062392e-04
  2.6221860e-05
  1.3465428e-01
 -3.4173742e-01
  2.7119896e-01
 -3.5317997e-03
 -1.2521695e-06
 -4.0244590e-04
 -3.7743688e-05
  8.0695629e-02
  8.1442515e-05
  1.5130237e-04
 -1.9181856e-04
 -9.6953018e-03
 -1.2839447e-04
  2.6044878e-04
 -1.1741825e-01
 -5.8470888e-04
  4.8212049e-05
 -3.3156123e-04
 -5.1784993e-04
  4.7300193e-01
 -7.8469381e-04
 -5.1514606e-04
 -3.5716398e-03
  1.5908554e-04
  9.2869031e-01
  7.7991666e-05
 -2.6875854e-04
 -2.0349936e-03
  9.1863569e-04
 -2.2272117e-04
 -5.2280840e-04
  1.4810367e-04
 -1.6063832e-04
 -1.2709589e-04
  1.1329224e-05
  3.5903609e-04
  6.6352077e-03
  1.6641831e-04
  1.1584617e-03
  6.3098903e-04
  4.7839156e-05
  3.4149890e-04
 -5.7886798e-05
 -5.5361068e-04
 -4.6959391e-04
 -1.8653297e-04
  3.3226158e-04
 -2.9572284e-05
 -4.1366156e-04
 -7.7269557e-05
  1.4484812e-03
  6.1397784e-04
 -1.9171694e-05
  6.9457456e-05
  6.3934166e-04
  1.0099189e-04
  1.1830687e-04
  2.1885792e-04
 -3.2804042e-04
  1.3911602e-04
  2.0593438e-04
  9.7437260e-05
  1.0984492e-03
  2.5813229e-04
  3.2657522e-04
 -7.1429089e-04
 -1.2787250e-05
 -1.9085282e-05
  4.5869121e-04
  6.3623657e-04
  2.1957421e-01
 -1.7258296e+00
  2.2214961e+00
 -9.0177506e-01
  5.3875909e-05
 -6.6944361e-03
 -1.4627050e+00
  1.9050590e-04
  7.2344625e-01
  5.9249617e-02
  1.2110589e-04
 -5.2100962e-01
  2.6921267e-02
  5.9244379e-05
 -2.3048854e-01
 -5.0278330e-05
 -4.1421866e-01
  6.4073026e-02
 -1.3232527e-05
  7.7556002e-01
 -6.0010640e-05
 -4.3545961e-02
  7.6606315e-01
 -2.8545317e-05
  1.3405904e-01
  1.2920724e-04
  1.4187434e+00
  4.1967351e-04
  7.4999683e-05
  1.9039329e-03
  9.7847660e-05
 -7.0243514e-06
  4.9147097e-04
  9.9527440e-04
  2.1271082e-05
  5.6471586e-01
 -1.3889560e+00
  9.5586461e-01
 -1.1766236e+00
 -4.1730101e-03
 -2.4476804e-01
 -2.6035202e-01
  5.4565200e-04
 -1.3448592e-01
  1.2855137e-04
  1.6073359e-04
 -7.1825939e-01
  4.5604375e-01
  9.8318640e-05
 -1.2883939e+00
 -4.7498897e-02
 -6.6818404e-01
  1.6830143e-01
 -2.6261035e-04
 -4.0181401e-01
 -2.7739309e-02
 -3.2208365e-01
 -5.3992495e-03
 -3.7209113e-04
 -1.1175132e-01
 -6.8270303e-05
 -2.2719594e-04
 -6.5435289e-04
  1.2821288e-04
  5.9570763e-03
  3.0543353e-05
  8.7274000e-04
  4.7146200e-04
  1.2151935e-04
 -3.5186738e-04
  2.2641927e-04
 -4.3372758e-04
 -6.7664182e-06
 -4.5627676e-04
  4.9098908e-06
  2.8566475e-04
  3.7910260e-05
 -5.7201814e-05
 -1.7037361e-03
  1.9858195e-03
 -8.6653265e-05
  7.2953990e-05
 -1.9125053e-05
 -5.5749557e-04
  2.5669427e-04
  1.0456600e-04
 -3.9134837e-05
 -6.6693744e-04
  2.2129643e-04
  1.2183335e-03
  3.9679182e-04
  1.4278090e-04
  2.7103204e-04
 -3.8269407e-04
  3.0756753e-05
  8.8445377e-06
  1.0479321e-03
 -1.0215015e-04
 -1.1637130e-04
 -6.6270317e-05
 -7.8117344e-05
 -2.8385938e-04
 -8.2377129e-04
  3.4753284e-05
  2.1349196e-04
 -9.9588600e-05
 -1.2192303e-04
  7.5660566e-05
 -3.7312601e-03
  3.9129958e-05
 -3.1412726e-06
 -9.5445162e-01
 -2.3713849e-01
  3.6093616e-01
 -1.6368261e-04
 -1.2286668e-04
 -1.8489378e-03
  1.0769966e-04
  9.8100376e-05
  1.2044494e-04
  1.3846497e-05
 -2.5996822e-04
 -1.7562971e-04
  5.4385106e-04
 -1.5488660e+00
  2.1943501e-04
 -8.2243839e-04
  5.0080889e-01
  3.8083229e-04
 -4.8531947e-01
 -1.0114288e-04
  3.0046047e-05
 -1.5416041e-04
  5.6980021e-04
  3.5248106e-04
  1.9916126e-03
 -1.8223705e-05
  8.1116865e-05
  2.1578916e-04
 -2.6563372e-04
  3.8232021e-02
 -2.4812719e-01
  1.4527509e-01
 -8.8204436e-02
 -6.2120941e-02
 -4.8751494e-01
 -7.1877706e-01
  3.6334357e-05
 -1.8353917e-02
  1.6520487e-02
 -1.9854084e-01
 -1.3107533e+00
  6.4499788e-02
  1.0417593e-01
 -4.9450163e-02
 -1.5009709e-01
 -8.2956487e-01
  1.3350734e-02
  1.0199974e-01
 -2.9522858e-03
 -2.8252897e-03
 -1.2750521e+00
 -6.1999080e-03
  1.0231419e-04
 -3.5469602e-03
  7.2294957e-04
  2.2305502e-03
 -1.6781734e-02
  2.7139229e-01
  5.3422078e-02
  3.0051716e-04
 -1.9622470e-01
  2.6858083e-03
 -5.7817684e-05
 -7.5374701e-05
  1.4785596e-02
  1.4292779e-04
 -9.8881239e-05
  1.2386291e-03
 -1.5889475e-02
  1.2030797e-02
  6.2243768e-04
 -2.8781095e-04
  1.0328880e-04
  2.4867162e-05
  4.0565283e-04
 -1.0977375e-05
 -2.1414351e-05
  1.2128419e-03
 -4.2233311e-04
  1.2031656e-04
 -5.2035821e-04
 -3.6584673e-04
 -1.0407521e-04
  2.0073674e-04
  4.2148121e-04
  1.2916028e-04
  9.5474643e-01
  2.6710102e-04
 -9.4585601e-05
 -1.3108972e-04
  3.6392355e-04
 -1.8874342e-04
  6.8529807e-05
 -3.4590840e-04
 -1.2869148e-04
 -1.1015175e-05
  1.7919582e-03
  3.3116037e-05
  2.3709977e-04
 -6.6377354e-05
  2.2868093e-03
  9.5361451e-05
  5.5630616e-04
  2.9907358e-04
  3.2864683e-04
 -3.5147961e-05
 -7.5964406e-02
  1.0654924e-04
  2.5103327e-05
  4.3780426e-05
  5.6443736e-04
  9.0999192e-06
 -3.4378565e-04
  2.4929634e-01
  2.5792935e-05
 -6.4920445e-05
 -1.6250880e-03
  1.6909026e-03
  1.0420170e-01
 -5.3860243e-05
  6.7468114e-05
 -4.6399501e-04
 -2.4756638e-04
 -8.3885413e-01
 -1.7134215e-04
 -2.2917510e-04
 -1.6084861e-05
  6.3185944e-05
  1.9873555e-04
  1.2388796e-04
 -6.0007383e-06
 -6.7761418e-04
 -9.4734074e-05
 -3.1223513e-05
  1.8606479e+00
 -3.2297752e+00
  4.2116408e+00
  4.3504175e-02
  2.5846651e+00
 -9.1253803e-04
 -1.0304172e-01
  2.3454789e-04
 -2.2432519e-04
 -1.5546924e-02
  7.9875611e-02
 -7.6833002e-02
  2.0279220e-01
  1.2681292e-03
  1.2637075e+00
 -2.6214395e-02
 -2.5197240e-03
  1.5410177e-01
 -3.4865621e-05
  1.0773326e+00
  1.2595326e-04
 -2.9518062e-04
  2.7933884e-01
  1.1025390e-03
  4.5183733e-01
 -4.9222177e-07
 -2.1466649e-04
 -1.0757794e-04
 -4.3948523e-05
 -5.2709573e-05
 -1.0784166e-03
 -1.3634130e-05
  5.3111382e-04
 -1.2820019e-04
 -1.4451453e-05
  8.0516227e-02
 -5.4038066e-01
  1.5144639e+00
 -9.2485458e-01
 -6.1061545e-03
 -1.8422690e-04
 -2.0385145e-03
  7.8271337e-02
  3.4786392e-02
  5.0481498e-01
 -1.1713280e-04
 -1.2489036e-02
 -2.0372638e-02
  7.9264855e-06
  4.6768632e-02
  1.1168358e-04
 -1.3285971e-01
 -1.6500094e+00
  4.2850342e-02
 -1.9856612e-01
  1.6914049e-04
 -1.6359638e-03
  1.6440490e-02
 -4.4887995e-05
  3.6480319e-02
 -1.1460924e-04
 -2.8064220e+00
  1.2466146e-04
 -1.1281398e-04
  2.4870498e-01
 -7.7127689e-04
 -3.3458567e-04
 -1.0950845e-04
  5.8100293e-05
 -2.4377418e-05
  6.5160596e-01
 -1.1713901e+00
  1.1001217e+00
 -6.9871837e-01
 -1.3278857e-01
 -1.2456806e+00
 -1.1879630e+00
  2.6951951e-01
  1.2517011e+00
 -1.7135700e+00
 -7.8037906e-01
 -8.8196445e-01
 -9.0745866e-01
  6.1896217e-01
  8.0002032e-02
 -5.7995200e-01
 -1.8655112e+00
  1.0528812e+00
  8.0933355e-02
 -1.0868229e+00
 -5.6204218e-01
 -1.5949934e+00
 -6.4037347e-01
  2.2057843e-01
 -1.1110488e-01
 -1.0182087e-03
  2.6691714e-01
 -1.2983595e-01
  6.0949042e-03
  6.4735836e-04
 -3.8632243e-05
  2.1308009e-04
 -3.0590370e-01
  1.2708192e-03
 -8.8443725e-05
  8.7225384e-01
 -6.9245124e-01
  2.0295589e+00
  5.4274125e-05
  3.1136733e-04
  1.7758815e-04
 -7.2980247e-04
  1.6802842e-04
 -7.3211626e-03
 -1.3288080e-04
 -2.8456718e-04
 -1.9270078e-04
  1.1775804e-03
 -7.8777811e-03
 -1.1122633e-02
 -5.9338839e-05
 -2.4018877e-03
 -2.6637336e-04
 -3.8134684e-05
  3.0204639e-04
  1.6385707e-04
 -1.6231802e-03
  5.6232244e-01
  4.5811397e-04
 -3.4523863e-01
  1.2248024e-04
 -3.0083521e-04
  2.5515183e-04
 -1.0732018e-04
  8.4712636e-04
 -1.2508157e-04
 -1.2179249e-02
 -8.1861563e-06
 -8.2051505e-05
  7.9592945e-07
  1.7004994e-04
 -7.8619069e-06
 -1.4932148e-04
 -2.9638578e-04
  1.3740071e-04
  1.1637512e-04
  2.5961638e-04
 -3.0095905e-05
 -3.4897264e-05
  1.2658630e-04
 -7.2192284e-05
 -1.0935865e-04
  1.5145805e-04
 -4.2655916e-05
  1.8065872e-04
  1.1983347e-04
 -1.1595542e-03
  3.7799682e-04
 -7.6028839e-04
  6.0991320e-04
  1.5535181e-04
 -2.9728032e-04
 -2.8436081e-03
 -9.2494825e-05
 -6.5090769e-04
  4.2779383e-04
  1.1588082e-04
  4.5778047e-06
 -1.0271648e-04
 -1.8994773e-05
  9.5012737e-04
 -2.1456523e-05
  2.2366516e-05
 -9.9459437e-05
  4.6545680e-04
 -4.4122271e-04
 -5.8105320e-01
  3.6406866e-01
 -9.9409483e-03
 -1.1765801e-03
 -3.1855630e-05
 -3.2503175e-04
 -4.1564385e-04
  4.9118540e-04
  2.2738846e-05
 -4.0077380e-04
 -3.7850608e-05
  1.6899744e-01
 -1.0619546e-04
 -1.5087401e-03
 -2.1318346e-04
  5.0158077e-04
  3.4609329e-05
 -3.8984220e-04
  3.9927774e-05
 -1.5993585e-03
  2.6764974e-05
 -5.4491938e-05
 -3.8397405e-04
 -1.5575620e-02
  3.1242095e-04
 -9.7715027e-05
  2.4611232e-04
 -2.4640013e-04
  1.1454115e-05
 -2.6001029e-05
  3.1232084e-05
  1.1905845e-05
 -2.5290068e-05
 -1.2215128e-04
 -1.0233200e+00
  1.4284328e+00
 -1.3192026e-01
  1.0464906e+00
 -5.1086903e-01
  5.9483101e-04
  1.0517112e-01
  1.6481549e-02
 -7.5950299e-04
 -8.2054609e-01
  2.7226675e-01
  2.9224288e-01
 -1.9287004e-01
 -2.3670383e-01
 -1.7617784e-01
  1.8320653e-01
  5.3279871e-01
  2.4644965e-01
 -2.3559554e-01
 -4.9856529e-01
  1.0317754e-01
  2.5967422e-01
 -8.2783595e-02
 -1.9423293e-01
 -2.9494292e-01
 -3.2220006e-02
 -4.6792153e-05
  1.3709967e-05
 -1.1958883e-04
 -3.6980822e-05
 -1.4465956e-04
 -3.0488940e-04
 -2.0329551e-04
  8.9062851e-05
 -1.9826466e-04
  3.9030804e-04
  1.2421583e-04
 -1.1289332e+00
 -3.3271962e-04
 -1.0152749e-04
 -1.8020606e-04
  4.0991661e-05
  6.9492846e-05
 -4.6355868e-05
 -2.3285454e-04
 -4.1000979e-04
 -5.6552872e-05
  3.4590228e-03
 -7.5658529e-05
  1.4646804e-04
 -6.6037024e-03
  1.0743359e-04
 -3.1515978e-05
  2.5521728e-01
 -5.1950710e-04
  7.0203045e-05
  1.4975933e-04
 -8.4106599e-05
  3.8072027e-04
  1.0884776e-02
 -4.0595263e-05
 -5.5855238e-05
 -1.6289019e-05
 -3.2171360e-05
  1.0721725e-04
  3.9438248e-05
  2.2667216e-04
  4.7692217e-04
  6.0213948e-05
 -3.3588399e-06
  2.7518746e-04
  1.0519514e-04
  1.8181262e-04
  2.4843717e-04
 -1.7274389e-01
 -7.7518128e-04
  3.1709351e-05
 -9.7722601e-05
 -3.3105284e-04
  2.5009748e-04
  8.8582252e-05
 -7.9405057e-04
 -3.6559901e-05
 -2.9169541e-04
 -1.9428920e-04
  7.6160788e-05
  2.7594902e-04
 -3.9581937e-04
  9.0891081e-05
 -3.3438034e-04
 -5.9254002e-05
 -9.0980364e-05
  6.0927944e-04
  2.1134716e-05
 -5.6441064e-04
  2.6141613e-04
 -1.3806557e-04
  8.8699155e-05
  9.8669156e-04
 -1.9956399e-04
 -2.4721701e-05
 -2.0801040e-04
 -1.4080125e-04
 -1.2580333e-04
  2.1567965e-04
 -2.9950265e-02
  4.1833773e-04
  4.0512848e-05
  3.0499279e-01
  9.8483004e-05
 -6.3734093e-05
  3.2918176e-04
 -1.3575731e-04
 -1.1418371e-04
  3.8185646e-04
  3.3961289e-05
  2.4901768e-03
 -1.2820014e-06
 -1.1073967e-04
 -1.9169655e-03
 -4.0585557e-01
  1.3799123e+00
  9.7494102e-01
 -9.9114295e-05
  1.6393544e-01
  2.5811506e-04
 -2.6475929e-04
  1.7693155e-01
 -3.8414673e-05
  9.5463246e-01
  1.9441916e-04
 -1.3227841e-04
  1.2934002e-03
 -1.0999363e-04
  1.2381426e-04
 -4.8320802e-04
  8.0723672e-05
  1.2995390e-02
  2.3667048e-05
  4.6254866e-04
 -7.0121969e-05
  1.9871411e-03
  1.2110456e-04
  6.7440030e-04
  4.2702549e-04
  1.0642622e-03
  2.6878935e-05
  8.9738987e-06
  5.6366826e-04
  1.0807608e-04
  9.9920013e-05
  7.5391127e-04
 -4.9104029e-03
  1.1580760e-04
  1.6986329e-05
 -5.8628499e-05
  8.8791776e-04
  2.2582019e-05
  1.2328633e-04
  3.2141284e-04
 -2.2610324e-04
 -5.3393515e-04
 -2.4498506e-03
 -7.9434685e-04
  1.2703106e-03
 -1.9579785e-04
 -3.4684906e-04
  2.5520061e-05
 -2.5668460e-05
 -6.1008520e-04
  3.5904229e-04
  3.1521765e-04
 -2.6899416e-04
  1.2958031e-07
 -2.0001926e-04
  1.0192012e-04
 -5.3647859e-04
 -7.8555383e-04
 -1.0723288e-01
 -7.4040168e-04
  1.9988354e-04
 -6.5552853e-03
 -9.2588401e-05
 -1.2504160e-03
 -1.5664158e-05
  4.3126758e-05
 -4.4274985e-04
 -3.8458593e-04
  1.1513033e-03
  2.6964072e-02
 -4.2067459e-04
 -6.1899918e-04
  3.8932925e-01
 -1.4717542e-04
  1.9286683e-01
  4.6897239e-05
 -5.6522877e-05
  1.3246109e-01
 -1.8877171e-04
 -3.8298869e-03
  2.6840490e-04
  4.0250135e-05
  6.9530105e-04
  1.1992667e-04
 -1.3261483e-05
 -9.9464692e-04
 -1.6922907e-04
  2.8020798e-04
  2.0061237e-04
  9.5473433e-07
 -4.2667907e-01
  2.2347432e-01
 -1.1364553e+00
 -2.8120002e-01
  2.6620672e-05
  5.3418717e-05
 -2.2069786e-05
 -1.3139573e-04
  2.3210477e-04
 -1.0068523e-04
 -6.8277254e-04
 -1.5870764e-05
 -1.3170777e-04
 -7.5402322e-06
  2.2892916e-04
  9.8851611e-05
  1.9622811e-04
 -7.0368429e-04
 -1.1418988e-04
 -4.2061049e-01
 -4.5730951e-05
 -3.9295229e-01
 -4.0938970e-04
 -5.2590622e-04
 -5.2436709e-01
  2.9038478e-04
  6.4083826e-05
  1.6908249e-06
  6.3889580e-05
 -5.0525938e-04
  1.5986699e-04
 -2.9123906e-04
  7.0957962e-04
 -3.2476371e-04
 -4.5345520e-04
 -7.1970600e-01
  4.9475732e-04
 -5.4198098e-01
  4.2843843e-01
  1.2482978e-01
  1.6001488e-01
  6.7898643e-04
  3.3442186e-05
  3.8469560e-04
  2.5839048e-05
 -5.3123350e-04
  2.9190212e-01
 -1.0829435e-04
  3.5179436e-04
  5.3319797e-02
  9.4701466e-04
 -2.7353599e-05
 -1.4002356e-03
  3.7817948e-04
  9.2760354e-02
  2.5924114e-03
  1.7780664e-04
  3.7705783e-02
 -8.5826014e-04
 -4.2328537e-01
  6.3845830e-04
  2.9255305e-05
 -1.0284193e-04
  9.8143748e-05
  1.1572844e-04
  1.6979514e-04
 -2.3076141e-03
  4.4105551e-04
 -5.3776039e-05
  2.3373758e-04
 -4.9984903e-04
  1.8513970e-01
  1.0458893e-04
 -1.2271099e-04
  4.4803274e-01
  1.7156839e-04
 -1.7002039e-05
  4.1153970e-05
 -3.9698316e-05
 -3.2256159e-04
  7.2436687e-04
  1.9406138e-03
 -3.4408637e-03
 -7.6072221e-04
 -6.5854914e-04
  9.5265580e-04
 -3.4965811e-05
  1.5368215e-04
 -5.1750551e-04
  7.2460786e-02
  3.6009832e-04
 -9.0535112e-05
  3.0683947e-05
  4.9203904e-06
 -2.3130234e-04
 -2.4665066e-04
  3.8804967e-05
 -3.9109125e-04
  2.9968176e-05
  1.7552795e-04
 -5.5101664e-05
  2.9377680e-04
  7.6832266e-06
 -5.2658707e-04
  1.8974383e-04
  1.9271387e-04
  5.5603278e-03
 -3.2191029e-01
  3.4783599e-01
  2.8733766e-06
  1.1535207e-03
  3.1495612e-04
 -5.2813768e-05
  6.2326413e-05
  5.4427379e-05
  1.7807436e-04
 -6.3344633e-05
 -4.3759514e-03
  2.9302426e-04
  1.4868084e-01
 -4.3867162e-04
  2.4734819e-03
 -2.6288567e-04
 -5.0770800e-04
 -7.0207159e-04
  1.2132042e-04
 -4.2907148e-05
 -1.2285376e-04
 -1.1450856e-04
  1.4163764e-01
 -1.4440347e-05
 -4.1630270e-04
  4.1860752e-05
 -3.2126422e-03
  5.9986171e-05
 -5.3661241e-04
 -2.4138673e-04
 -4.8885314e-04
 -1.0320719e-05
  6.8798126e-04
  3.0033346e-04
  1.8711368e-03
  4.2426802e-04
  1.5069819e-04
 -2.4078701e-05
  1.0804029e-04
  5.3673296e-04
  1.1359120e-04
 -1.1286190e-04
 -1.0440520e-04
 -6.6959480e-04
  2.8141489e-04
  1.6039809e-05
  2.1653877e-04
 -5.6430978e-05
  5.8844831e-04
 -2.4353700e-04
  9.6770251e-05
  1.7968462e-04
 -6.3500753e-05
 -7.0804718e-04
  4.7491962e-05
 -2.4895269e-06
 -8.8027278e-05
 -1.0040584e-04
  5.3824178e-06
 -3.5948677e-05
  5.1965038e-05
  1.9766878e-04
  5.1654491e-04
 -2.9606183e-04
 -4.2956974e-04
  1.8553520e-04
  9.8858832e-04
 -2.2112261e-05
  6.9527829e-01
 -1.5107917e+00
  9.9067479e-01
 -1.0670130e+00
 -1.3163332e-03
 -2.8212392e-04
 -7.0749959e-03
 -1.8712521e-02
 -1.1050262e+00
  4.4498932e-01
 -5.7062125e-01
 -3.5493240e-01
 -9.1536110e-04
  4.2283800e-01
  9.6013987e-01
 -2.0801869e-01
 -6.0854232e-01
 -3.9559084e-01
  1.4521843e-01
  2.1632254e-01
  9.3174740e-06
 -3.5059056e-01
 -3.1350940e-01
  3.6838108e-01
 -6.2837011e-01
  1.4166368e-04
  8.1281288e-04
 -2.7536689e-03
  1.3241555e-04
 -2.9712850e-01
 -6.8293471e-04
  7.0595615e-06
  1.9986485e-04
  1.0084828e-03
 -7.2620687e-06
 -1.2139000e-04
 -3.1649059e-04
 -1.0110424e-03
  8.6819717e-05
  2.0482323e-04
 -1.5187265e-04
 -6.9430360e-05
  1.1736463e-04
 -2.1993669e-04
 -6.4071920e-04
 -4.9154920e-04
  4.8300499e-04
  1.3938299e-04
 -2.3799971e-01
 -9.7023432e-05
 -1.7435726e-05
 -1.2778511e-03
 -6.4538559e-05
  4.7745419e-04
  1.1506315e-03
  5.0156585e-05
  1.6745372e-04
 -2.8963623e-05
  7.1454758e-04
 -9.9465135e-04
  1.3860430e-04
  1.6055855e-01
  1.0473715e-04
  4.2241166e-04
  3.5650897e-04
 -1.1057179e-04
 -8.1893355e-05
 -1.0334311e-04
  3.2416585e-05
 -1.7405975e-04
  2.9696705e-05
 -1.1775482e-04
  3.2616266e-05
  1.0484764e-04
 -4.6769276e-04
  2.0105037e-04
 -1.0865508e-03
 -5.6521290e-05
  3.8716412e-04
 -1.0906973e-04
 -4.3494743e-05
  1.2143356e-03
  9.8960729e-05
  6.6032684e-05
  2.5905754e-05
 -4.4607880e-04
  1.6353873e-04
  3.4111632e-05
 -3.1861116e-04
  1.5671445e-03
 -1.3565229e-03
 -1.4138626e-04
 -4.3123018e-04
  2.3260890e-04
 -3.7607265e-04
 -2.0925545e-04
 -1.1972254e-04
 -1.3965669e-04
  2.9643087e-04
  1.1068595e-04
 -1.2162109e-04
 -8.3423476e-04
  1.4993751e-04
  1.5451127e-05
 -1.9794570e-04
 -1.5130544e-04
 -3.6768228e-04
  5.0443071e-01
 -2.5428366e-04
 -5.5774519e-05
  3.9753289e-04
 -1.8133770e-04
 -2.8687585e-03
  4.4522560e-05
 -2.5351299e-04
 -8.7954366e-04
  5.1248563e-04
  6.9636828e-04
  2.2055852e-04
  9.0309029e-04
 -2.8157903e-05
 -2.0476871e-03
  3.4715311e-04
 -3.5715988e-05
 -6.9876254e-04
  1.0202936e-04
 -9.8574827e-05
  3.3288158e-04
 -1.8934786e-04
 -2.3227731e-04
 -2.9618575e-04
 -3.4179154e-04
  9.9170311e-06
  4.9119396e-04
 -1.2316293e-04
 -1.1124086e-04
  3.2621526e-04
 -4.0077306e-05
  9.7096211e-04
 -2.5743162e-03
 -6.3411608e-02
 -1.0869357e-04
 -2.6103887e-01
 -1.3170100e+00
 -3.3687646e-04
 -8.5261847e-05
  1.7236700e-04
  4.8342644e-04
 -3.7669783e-04
  3.1416939e-04
  1.9817807e-04
 -1.4461816e-04
 -1.9467788e-04
  6.5495019e-06
  8.1760377e-02
 -1.0109141e-04
 -1.0284375e-05
  5.0727263e-05
  4.4254880e-06
 -7.7386689e-01
 -1.4648649e-04
 -4.3896257e-04
  4.0654501e-01
 -5.0325042e-01
 -3.8294753e-01
 -3.6428269e-04
 -2.2735083e-04
 -7.4037706e-04
  7.9709158e-04
  3.5070188e-05
 -3.7995770e-04
 -4.8347094e-04
  3.3529021e-04
 -2.0823689e-04
 -3.7424004e-04
  8.5920219e-05
  6.4220053e-01
 -6.1055855e-04
  1.7091096e-04
  2.6702297e-05
  5.1839493e-04
 -4.3363685e-05
 -8.1181424e-05
 -2.4060048e-05
 -7.7923684e-04
 -1.1683606e-01
 -1.7240149e-04
 -3.1909405e-04
 -4.7562760e-04
 -8.7375491e-05
  1.8678782e-04
 -2.6663378e-04
 -6.4085849e-05
 -1.5777505e-04
  5.9021969e-04
  3.2529415e-04
  2.3787702e-04
  6.0779425e-05
 -6.7398418e-05
 -4.2210254e-04
  4.0040561e-04
 -8.1512023e-04
  2.7214678e-04
  2.1230159e-04
  5.4121198e-04
 -4.4062157e-04
 -1.5318145e-04
 -1.5182552e-04
  5.7882280e-04
  1.9337100e-04
 -2.6235837e-01
 -7.2741550e-01
 -3.5127008e-01
  1.5582813e+00
  4.9777937e-01
 -5.8809132e-05
 -2.3843630e-01
  8.5866727e-02
  1.7798226e-05
  2.7897391e-01
  7.0536785e-02
 -4.7986181e-05
 -8.0237605e-02
 -5.8950944e-04
 -1.4900473e+00
  4.3971893e-01
  4.9886433e-04
 -1.5287078e-02
 -7.7311814e-02
 -2.3373785e+00
 -1.5134436e-04
  3.7442500e-04
 -9.2046553e-01
 -4.7247852e-03
 -8.4196579e-01
 -3.2481934e-05
  8.5929054e-04
 -2.9635651e-04
 -3.2329978e-04
  3.0175266e-03
  1.7572894e-04
 -2.0937787e-05
  5.3104388e-05
 -2.2995383e-04
  3.0274707e-04
 -7.1548944e-04
 -1.9260687e+00
  1.1066029e+00
  1.9186433e-01
  7.4505086e-05
 -1.5568931e-03
 -4.2253311e-04
  1.0658424e-02
  4.4404011e-02
  1.0207403e+00
 -1.3800307e-01
 -3.0598509e-01
  6.3618012e-02
 -5.3916694e-05
  1.1863945e-01
 -8.6752810e-02
 -1.8773873e-01
 -8.7567765e-01
  8.1741111e-04
  5.0665635e-01
 -8.9467835e-04
 -1.5199495e-03
  4.0029664e-02
 -4.2375026e-04
 -6.0302043e-01
 -3.7537300e-04
  9.0636284e-05
 -1.9064620e-07
  1.6153003e-04
  1.2000627e-01
 -6.7254063e-04
 -7.3234871e-05
  5.9897627e-04
 -7.9125850e-05
 -1.7070699e-06
 -2.6401499e-04
  2.5295876e-05
 -6.5110176e-04
  7.0224282e-06
  2.3133196e-04
  1.7242404e-03
 -2.3129975e-04
  1.4232591e-04
  7.8902223e-05
 -3.8565023e-04
 -2.0163468e-04
  1.8112773e-02
  3.1017952e-04
 -1.3786790e-04
  2.1961528e-04
  2.4502963e-04
 -3.8999875e-05
 -1.0686420e-04
  1.8832825e-04
 -1.0064041e-06
 -3.0840187e-05
 -4.3069649e-01
  3.5559638e-05
 -1.1373498e-03
 -1.4649025e-04
 -3.5995457e-02
  8.4480402e-05
 -2.8196746e-05
  1.8650887e-04
 -5.9450435e-04
  2.4354233e-05
 -1.0635205e-04
  5.8787229e-04
  1.8762499e-05
  1.1088010e-03
 -1.0048882e+00
 -1.0362549e-04
 -1.8718040e+00
 -1.6939037e+00
 -5.2716815e-01
 -2.0521329e-01
 -2.3373216e-01
 -4.5564190e-02
 -1.3375434e-01
  8.3244509e-01
 -1.7039332e+00
 -9.6886244e-05
  2.1767963e-01
 -2.9307063e-04
  3.0243868e-01
 -2.7148095e-01
 -4.0302733e-01
 -3.9655691e-01
 -3.1026233e-02
  2.3148662e-01
 -1.0318436e-01
 -1.1798964e-01
 -9.5952588e-01
  1.8853560e-01
 -6.7864692e-01
  1.6246653e-04
  8.4096318e-05
  4.6019788e-05
  9.3802816e-04
 -1.4305463e-04
  9.2799630e-05
  2.8468980e-04
 -4.6318865e-04
  3.3043299e-04
 -2.8004951e-04
  5.4181737e-01
 -4.0032226e-03
  2.0318577e-01
  2.3213084e-01
  9.8664849e-04
 -2.9899331e-05
  1.6595396e-04
 -1.8103915e-04
 -4.8574086e-04
  1.8402754e-01
  4.8474362e-01
  2.7892119e-03
 -2.6125735e-01
  3.6872876e-05
  9.9797845e-01
  4.5227129e-02
  4.8021934e-04
 -2.6840689e-03
  2.8784059e-05
  1.3899332e+00
  4.2376745e-02
  3.7825052e-04
  2.1449376e-03
 -1.7441815e-04
  2.4100564e-01
  1.0060589e-03
 -6.8437010e-05
 -1.1531738e-04
  5.5976629e-01
 -4.7097829e-01
  2.9366260e-05
  7.0349575e-05
 -3.5616489e-05
  2.8042879e-04
  1.5816533e-04
  2.0598293e-04
 -2.4315862e-01
  3.4187600e-05
 -6.9368976e-01
 -7.1649076e-05
 -1.5654996e-04
  3.6416764e-05
 -2.4795627e-02
  1.2349814e-05
 -1.2667803e-04
  4.0822584e-04
  5.7905010e-05
  3.8640548e-02
  2.6900359e-04
  5.5964512e-04
 -1.3640516e-04
 -5.6772254e-04
 -3.8791978e-04
  1.1623106e-03
 -1.4815437e+00
  3.0415866e-04
  6.4389303e-04
  8.6062471e-05
  2.8790307e-04
  1.2096473e+00
 -3.7899907e-04
 -9.2892814e-04
 -3.4606704e-04
  3.5538897e-04
  6.8753953e-03
 -5.5856071e-03
 -6.7416819e-05
 -3.7062506e-04
  4.4578599e-05
  6.2303616e-06
 -1.1960731e-04
 -1.2823887e-04
 -8.2511957e-05
  5.5051330e-03
  1.6083629e-04
 -7.4633640e-06
 -1.1622743e-04
  6.9849491e-05
  9.3341278e-06
  9.3432545e-06
 -2.8989310e-04
  3.7091741e-04
 -2.7142646e-04
  3.5187221e-04
 -4.7479709e-05
  1.4941747e-05
  2.4600691e-05
  5.1623420e-04
  1.1405901e-04
 -3.3507019e-04
  1.6122420e-03
 -1.3553256e+00
  3.2358850e-05
  1.0214528e-04
  7.0625073e-01
  2.8810883e-04
  4.8764869e-05
  8.5710111e-04
 -4.4166922e-04
  3.8220736e-04
  4.1450006e-05
  3.7240523e-05
 -1.9431079e-04
  2.8603245e-04
  1.8577754e-05
  9.1728485e-05
  8.9773274e-04
  7.5452175e-05
 -3.4231390e-04
 -1.8896017e-04
  9.2214916e-04
  1.6696038e-05
  8.3030936e-05
 -9.7123382e-05
 -9.5653093e-05
 -1.0733560e-02
 -4.0770283e-05
 -1.2454316e-03
  2.1381452e-04
  1.9912787e-04
  4.5151873e-03
  1.3611086e-04
 -5.0026458e-05
  2.5967136e-04
 -5.3951579e-05
 -8.3578736e-05
  1.6147258e-05
  1.6427743e-04
  8.9764500e-05
  3.7510213e-04
 -5.0167750e-05
 -6.2332704e-04
  8.8299959e-05
 -2.4551011e-05
  2.8502659e-04
 -3.1686726e-04
 -2.5134042e-04
 -1.3607390e-04
  1.3311319e-04
  1.9740246e-04
 -8.6284585e-05
 -8.2130136e-04
  1.6606125e-04
 -7.2162256e-06
  1.0486921e-04
  2.8346223e-04
 -5.1383663e-04
 -2.3608435e-04
  9.1103495e-05
  3.9159630e-05
 -8.0713762e-05
  2.5155285e-04
 -2.3608182e-04
  8.6315151e-05
  8.8960260e-05
 -8.8296110e-07
  2.9669845e-05
 -6.2859792e-04
  1.1942169e-04
  1.1457931e-04
  1.6291796e-04
  9.3907613e-01
  4.3484088e-05
 -9.1893249e-05
 -5.0169522e-01
 -1.5329316e-04
  3.2580469e-04
  2.6709071e-04
 -2.2079494e-04
  3.5437499e-04
 -5.5128051e-04
  1.5756454e-04
 -4.9830443e-04
  1.2164097e-04
  9.5468934e-04
 -1.3101687e-04
 -2.6146279e-04
 -2.6043662e-04
 -1.1238867e-04
 -9.3301831e-05
  3.0431154e-04
 -1.3885179e-05
 -4.6058928e-04
  1.0140179e-04
 -3.1875152e-05
 -4.5266454e-04
 -1.5516036e-04
 -3.9010349e-04
 -3.4590688e-04
 -4.4197914e-05
  2.7494326e-03
  3.4129866e-05
 -7.1802811e-04
  2.6134501e-04
  5.9288437e-04
 -1.0678770e-04
 -2.2518881e-04
  1.3819768e-04
 -1.4730034e-04
 -9.9306984e-04
 -2.0704656e-05
  4.0826178e-03
 -2.5584213e-05
  7.2038441e-05
  2.5908995e-01
  9.4344637e-07
 -5.0500286e-05
  4.3890301e-05
 -7.8065110e-05
 -2.5141207e-04
  8.1750179e-05
 -7.4603056e-05
  5.9649563e-05
  1.6960483e-06
 -6.7585519e-05
 -3.0706686e-04
 -1.6200800e-03
  4.1282965e-05
  4.0874849e-03
  8.9924323e-04
 -7.2422472e-04
  2.2051074e-05
 -3.6361809e-05
 -4.0495998e-04
 -1.6967116e-04
  7.0835390e-06
 -1.3164809e-03
  2.1578430e-04
  1.9830544e-04
  6.4814246e-01
 -2.0734641e-04
 -8.3257037e-04
  8.5608561e-05
 -3.7433671e-05
  9.4407909e-02
 -2.2502409e-04
  5.1884861e-05
 -6.6481254e-05
 -2.0398520e-04
  5.4914221e-06
 -3.1324412e-04
 -3.1643603e-02
 -2.7867913e-04
 -1.2954946e-06
 -6.2883948e-05
  8.4659919e-02
 -8.8917488e-01
  2.0901386e-01
 -1.0754467e+00
 -2.0212389e-03
 -1.6661578e-01
 -1.8944630e-01
 -4.5374250e-01
  2.0387396e-02
 -2.1244505e-01
 -5.9042931e-01
 -2.6897025e-01
  4.6011955e-01
  2.4114886e-02
  4.2076001e-01
 -4.4981140e-01
 -3.3647344e-01
  5.2550662e-01
  1.3644378e-01
  7.5927103e-01
 -2.5314733e-01
 -3.1540409e-01
  4.1486430e-01
  2.3277861e-01
  4.9551895e-01
 -5.0475827e-04
 -1.0239978e-04
 -8.1596040e-04
  1.2145944e-04
  2.2334647e-03
  2.7340223e-04
 -9.4578727e-06
  1.1962286e-05
  8.5888430e-05
  1.3726887e-04
 -4.0574427e-04
  7.8259456e-01
  3.1155816e-01
  1.2426111e-02
  6.1643217e-04
 -5.6478752e-05
  1.2830614e-04
 -1.5609396e-04
  1.7059909e-04
 -6.2763429e-04
  1.1414978e-04
  3.6619848e-04
 -2.6662396e-02
  7.1675357e-05
  3.8517261e-05
 -1.5330070e-04
 -7.7391829e-05
  1.5521851e-04
 -7.6000193e-05
  7.2603725e-04
 -1.9312909e-04
  9.8188139e-05
 -2.5224744e-04
 -9.4145244e-06
  8.1391484e-02
  2.8409882e-04
 -5.0770486e-04
  1.2236701e-04
  4.7370742e-04
  2.6107032e-04
  8.8416004e-05
  1.3640395e-05
  4.9373161e-06
 -2.0871519e-05
  1.7916874e-04
  2.0580385e-04
 -7.7257073e-01
 -6.1705307e-04
 -1.0244603e-01
 -1.3790900e-04
  1.7516615e-04
 -5.6753849e-04
 -1.3272805e-04
 -2.6762224e-04
  5.0892914e-04
 -4.2479535e-04
 -1.9335825e-03
  2.4956799e-04
  8.4907841e-04
 -7.5239605e-08
 -2.8700149e-04
 -3.6114000e-03
 -1.2214227e-04
  8.2742023e-01
  4.7950059e-02
  1.4514700e-04
 -3.8843005e-04
  2.3286208e-04
 -3.6887787e-04
 -1.2289806e-02
 -2.5720597e-04
  1.3657163e-04
 -3.9014345e-04
  1.7083976e-04
 -6.4718850e-05
 -4.1724714e-05
  1.9797400e-05
  8.4265950e-05
  4.0530012e-05
  1.4397204e-04
  3.8315332e-01
 -9.0115327e-01
  7.1965891e-01
 -5.9902202e-02
  1.7270854e-01
  3.2336269e-05
 -6.5034145e-04
  1.6390794e-04
 -4.8709172e-04
  8.9468025e-03
 -3.5701934e-04
 -6.1057910e-04
  8.9575985e-04
  1.4947802e-04
  2.4552019e-01
  2.1739995e-06
 -1.6668332e-01
  1.0244323e-04
  3.6080176e-04
  1.0893706e+00
 -2.8780240e-04
 -5.2517862e-05
 -2.2991942e-02
 -6.1615981e-05
  7.1296328e-01
 -1.4367855e-04
 -3.2944811e-04
  1.2653821e+00
 -2.1402539e-04
  6.9411515e-05
 -5.8835780e-04
  3.7880207e-04
  2.8901984e-04
 -8.7504298e-04
  1.8864697e-04
 -7.6204841e-04
  2.6169073e-04
  2.2274589e-04
  4.2342337e-05
  2.3146174e-05
  1.3442963e-04
 -5.8452228e-05
  5.5925604e-05
  1.8680901e-03
 -1.3596537e-04
 -1.9011962e-04
  5.3045860e-05
  5.0911587e-04
 -4.4284176e-04
 -9.6404910e-05
  1.3139602e-04
  4.9743900e-04
 -5.2261541e-05
 -3.1843803e-05
  1.5899831e-04
 -3.0390103e-04
  5.1271328e-04
 -9.8856143e-04
  6.5437518e-04
  5.1838808e-05
 -4.7417343e-04
 -1.9279627e-04
 -9.4404808e-05
 -1.1176556e-04
 -1.7524762e-04
  1.8519395e-04
  5.4604963e-05
  1.4456598e-03
  3.9905557e-05
 -3.0386244e-04
 -4.4243327e-05
  9.2945731e-04
 -2.2917036e-05
 -1.3036266e-04
 -2.3028723e-04
  5.1254564e-04
  4.0225982e-06
 -1.7534771e-04
  5.4236513e-04
  5.5828710e-05
  3.8174388e-04
 -3.2110183e-05
  8.4230225e-05
  3.5265861e-05
  5.6470785e-04
 -1.7714892e-04
  1.6268407e-04
  1.3495778e-05
  2.3742750e-05
 -2.1162588e-04
 -1.9329031e-04
 -6.2565558e-04
 -2.2373197e-04
 -1.7480607e-04
 -6.5022665e-05
 -2.0958176e-05
  3.4660537e-04
 -2.2061834e-04
 -2.1182769e-04
  7.6956221e-06
  1.2315727e-04
 -5.3525716e-04
 -4.7793405e-04
 -1.0351608e-04
 -1.3208121e-06
 -2.0701652e-02
  1.4239691e-01
 -4.8363738e-02
  2.6635128e-01
  1.9434713e-04
  1.2042883e-04
  8.2499220e-04
 -5.0333457e-04
 -6.2587811e-04
 -1.3803341e-03
  2.5692370e-04
  5.9732195e-04
 -2.0184218e-06
 -1.9912124e-03
  9.2746839e-02
  2.2454132e-01
  2.6526360e-04
 -2.8535089e-05
 -2.1804883e-05
 -1.3951492e-04
  1.6279815e-04
  2.7242746e-05
  3.0255347e-04
  3.0041146e-04
  1.5400633e-01
  9.5111762e-05
 -1.3337203e-04
 -4.4165799e-04
 -5.0911083e-05
 -5.4586337e-05
 -2.3317148e-06
  2.1732047e-04
  3.1329045e-04
 -5.8590388e-04
 -1.7376224e-04
 -3.5066992e-01
 -5.5606091e-01
  1.1320204e+00
 -1.7307750e+00
 -8.1640303e-01
 -1.4360540e-01
 -4.6449755e-03
  7.2790599e-01
  5.0292253e-03
 -4.3990016e-01
 -5.2164090e-01
  3.4778923e-04
  9.8959155e-02
  2.5387013e-01
  3.4145940e-02
 -2.7831838e-02
 -8.9769877e-02
  3.8889045e-01
  8.2737327e-01
  7.9373592e-01
 -1.9290403e-01
 -1.0876790e-01
  5.1749480e-01
  3.4713823e-01
  4.1286862e-01
 -2.1668246e-04
 -3.1230843e-04
 -8.9779549e-04
  7.3621998e-04
 -1.4184280e-01
 -3.8396387e-04
 -5.4077466e-04
 -2.6250578e-04
  2.3061327e-04
 -8.5960975e-04
 -8.9838105e-01
 -5.0710344e-01
 -7.7102840e-01
 -8.9243418e-01
 -2.0470600e+00
 -6.3710506e-03
 -2.0395399e-03
 -2.1059341e-04
 -5.2860135e-04
 -3.0406702e-01
 -4.6718800e-01
 -7.1798614e-04
 -1.3155828e-01
  1.0360419e-01
 -7.4699092e-01
 -3.5476275e-02
 -2.2616200e-01
 -4.5040902e-01
 -2.6702846e-03
 -4.3951920e-01
 -3.2982951e-01
 -2.0655225e-01
  2.4136628e-03
 -2.0879733e-04
 -1.7852826e-03
  7.5170811e-04
 -2.8239432e-05
 -5.1625376e-04
 -2.7141429e-03
 -2.5650431e-06
  7.4776364e-03
  1.2639110e-04
  2.5673839e-04
  2.7731156e-05
  8.1516431e-05
 -1.5653291e+00
  5.2726871e-01
 -9.1402376e-01
  1.7387563e-04
 -5.0260581e-04
  2.0251537e-04
 -3.6626760e-05
  1.6307992e-04
 -1.8770069e-04
  5.1908191e-05
  1.6400478e-04
  4.6987063e-04
  1.6700627e-05
  5.3678573e-06
  6.9697164e-02
  1.4655825e-04
  5.8458332e-04
 -5.5272692e-01
 -9.9098368e-04
 -1.9166144e-05
  1.1669383e-04
  6.8337875e-05
 -1.2720117e-01
 -6.9352973e-05
 -4.7876266e-01
  9.3157752e-05
  1.5989518e-04
  2.8740815e-06
 -1.3813290e-03
  1.5373324e-04
 -3.0555419e-04
 -2.8249995e-05
 -1.7162884e-05
  1.2306943e-04
  1.2212916e-04
 -9.5804979e-05
  2.3937021e-06
 -4.1636293e-05
 -1.0019675e-04
 -1.5686441e-04
  2.2722739e-04
 -1.8589698e-04
 -2.5186990e-04
 -2.7535716e-04
  3.7613747e-04
 -1.4652738e-04
  1.2033625e-04
 -1.3224772e-04
 -2.6585035e-02
 -9.1964350e-05
  1.6625637e-04
 -5.7721219e-05
  2.8836966e-04
 -8.4543519e-04
  4.1733772e-05
  8.5136741e-02
 -2.1839974e-04
  6.2101550e-05
  4.2075946e-04
 -4.8333561e-04
  1.6807769e-04
  2.7851236e-05
 -2.2171000e-03
 -2.9288067e-05
 -2.5630332e-04
 -4.8306934e-05
  9.0660869e-05
  2.3122939e-04
  2.5462743e-04
  1.7718419e-04
 -1.0406067e-04
  1.2912093e-04
 -7.1304283e-05
 -1.7686529e-04
 -5.1272735e-05
  1.7280900e-04
  4.5839353e-03
 -8.4896892e-05
  2.8431797e-04
  1.9944303e-04
 -1.0753926e-04
 -3.9475883e-04
  8.2912353e-05
  5.3040721e-06
 -2.9996768e-04
  8.9386878e-05
  3.6806829e-05
  8.4265725e-05
  1.7262623e-04
 -6.1050907e-04
 -4.7895015e-04
 -1.2243040e-04
  9.2351627e-05
 -1.0937984e-04
 -1.9570754e-04
  2.0920005e-04
 -1.3011902e-05
 -7.0894632e-04
  1.5720868e-04
 -6.5139975e-05
  7.1447772e-05
  9.3645613e-05
  1.0173285e-03
  8.8390159e-05
  2.7641929e-06
  1.2541397e-03
 -6.0861325e-04
  7.7805659e-03
 -1.8786048e-03
 -2.0380539e-04
 -4.1011532e-04
 -2.6811304e-04
 -7.8574277e-04
  9.2896726e-04
 -3.9814990e-05
 -1.1938132e-04
  3.7960918e-04
  1.1852648e-03
 -4.7311325e-05
  2.1633373e-03
  1.3349217e-04
 -7.6623319e-06
 -3.1611756e-03
 -4.7357007e-05
 -3.3813122e-01
  5.2933319e-05
  1.0089209e-05
  7.9156200e-07
  1.2517329e-04
  5.4243268e-05
  8.8611698e-05
 -4.5500201e-04
 -2.1084452e-03
 -6.9900379e-06
  7.4724096e-04
 -2.6444858e-04
  1.3394612e-03
  2.2737758e-04
 -1.4390165e-04
 -7.3637828e-05
  1.8748023e-04
 -2.9789162e-05
 -5.0067669e-04
  1.9191066e-04
  2.5819935e-04
 -3.2663986e-05
  2.3666419e-04
  1.4385789e-05
  1.0241453e-04
 -1.2460367e-04
 -3.2977488e-05
 -2.6585232e-04
 -1.3450199e-03
  1.6855300e-04
 -8.0843107e-05
  5.0016847e-03
 -5.5595004e-04
 -2.1190131e-04
  2.4390260e-04
 -2.0245591e-03
 -3.9154111e-05
  2.5928215e-05
 -2.2228359e-04
 -5.4875464e-04
  4.5361441e-05
  7.4709894e-04
 -1.6821132e-04
  7.2513080e-01
  3.5855759e-05
 -2.0531773e-04
 -1.2547729e-04
  4.2126712e-04
  1.1255145e-04
 -6.8334215e-05
  3.3890252e-04
  4.6440429e-05
  1.2543889e-03
  3.6014867e-04
  6.4295082e-04
 -1.2084901e-04
  1.4723378e+00
 -2.7541129e-05
 -3.5551729e-04
 -2.7145998e-04
  1.5239510e-07
  9.8706099e-05
 -8.3126790e-05
  1.4653764e-04
  1.3007032e-03
  1.4543422e-05
  1.5330101e-05
  9.6720416e-04
  3.9397279e-04
 -9.4887015e-05
  5.8551873e-03
 -1.3384453e-04
  1.8059796e-04
  7.3414238e-05
  1.3810194e-04
  1.2477387e-04
 -9.0675676e-05
  7.7585311e-04
 -3.0706589e-05
  6.0093077e-04
  6.8445916e-05
  1.3221247e-04
  4.3108128e-04
 -1.9442289e-04
 -1.2185755e-04
 -2.8299156e-04
 -2.2198920e+00
  7.1724254e-01
 -2.7877262e+00
 -1.3501371e-02
  5.0427858e-05
  5.1518762e-03
  1.2640116e-01
 -1.1869389e-04
  2.6665241e-05
 -2.8035574e-02
 -8.5918629e-04
  7.0411240e-04
 -1.2548144e-01
 -2.6749223e-04
 -6.2441015e-01
  8.0947846e-04
  6.2802125e-04
 -1.8701676e-04
 -1.6695990e-04
 -6.7927533e-01
  2.1856828e-05
  1.1166318e-04
 -4.4328794e-01
 -2.9145423e-04
  6.5257531e-01
  3.2811222e-05
 -1.5930438e-05
 -9.6688374e-05
 -1.6578587e-04
 -1.0490930e-03
  6.0373917e-05
 -3.3337911e-04
  1.4120528e-04
 -5.0202460e-04
 -2.6667647e-05
 -7.8487927e-01
  9.2195451e-01
 -3.4554785e-01
  3.9488313e-01
 -2.6758327e-04
 -2.3664046e-05
  1.4304720e-04
 -7.3217950e-04
 -7.3204715e-06
 -1.6025072e-02
  2.6678885e-04
  4.8898719e-04
 -6.2669668e-04
 -4.2587097e-04
  8.0389239e-02
  2.2927151e-04
  6.0845804e-03
 -5.7393718e-05
  7.7191744e-06
 -2.1292420e-02
  6.0977106e-04
  1.6037299e-04
  2.4474328e-04
  8.1154212e-05
  3.1068790e-01
  1.3103371e-04
 -1.7844516e-04
 -7.8505273e-06
 -4.8317230e-05
  7.8135420e-04
  1.1922952e-05
  7.3723895e-05
  1.1481082e-05
  2.1356903e-04
  7.0518377e-06
  9.4208895e-05
 -3.5865966e-04
  1.0578064e-04
 -6.3547399e-05
 -5.9848651e-04
  1.3303806e-04
  4.4933986e-05
  1.0149896e-04
 -7.4964569e-06
  2.0981068e-04
 -7.9201371e-04
 -3.1335829e-04
  8.6119646e-05
 -6.2104454e-04
  3.6548619e-05
  1.2620665e-04
  2.2749302e-06
  1.0069991e-04
 -1.5990250e-04
 -5.7598343e-04
 -6.3726131e-04
 -3.5811742e-04
  1.2480465e+00
  6.3321479e-02
 -1.0396032e-01
  2.5668205e-04
  1.1722124e-04
  4.6662772e-05
  3.6665218e-04
 -1.5419150e-04
  9.3341892e-05
  4.0029181e-04
 -2.2730457e-04
  9.6643598e-05
 -2.6327599e-04
  2.6997916e-06
  5.6588337e-06
 -2.1702688e-02
  4.1835752e-04
 -8.4905507e-05
  1.4863512e-04
  7.5355863e-05
  4.6673921e-04
  2.4882046e-04
  4.8124883e-04
  1.9341256e-05
 -1.7086318e-03
  1.0841422e-03
  5.3709875e-05
  1.4842580e-04
  2.7401178e-05
 -4.1553634e-04
  5.6086539e-04
  5.3023826e-04
 -2.2610267e-04
  3.1359604e-04
  2.0861447e-04
  3.0048803e-04
  1.2086732e-04
 -1.2404706e-04
 -1.2390033e-04
  1.1091231e-05
  5.4132604e-05
  1.7431025e-04
  1.9565236e-05
 -2.6867402e-04
 -1.6926280e-04
  4.6186673e-04
  5.6598568e-04
 -8.4370899e-04
 -2.4384464e-04
  1.6855370e-04
  1.9063071e-03
  3.7312431e-03
 -1.0246914e-04
  2.1220294e-04
  2.9503274e-01
  5.0596141e-06
  2.7361183e-04
  8.2605606e-05
 -1.5722393e-04
  9.4060804e-04
 -7.9131118e-05
 -1.7833525e-04
 -6.7238187e-05
  1.4848092e-04
 -6.9458009e-05
 -5.9940742e-04
  1.1256577e-04
  5.2871183e-02
  1.6579197e-01
  4.2238951e-04
 -3.9813429e-05
 -2.4108285e-04
  7.2570018e-02
  1.9346500e-05
  6.9994618e-05
 -2.7213857e-06
 -7.2003662e-05
  8.4627001e-04
 -2.2310275e-04
 -1.7257739e-04
  1.2932446e-04
 -4.0801595e-05
 -3.8565395e-05
 -2.8696477e+00
  2.8537695e+00
 -2.9814758e+00
 -1.9744110e+00
 -2.2021766e+00
  4.4286062e-05
  9.1282445e-01
  4.7538345e-04
  2.3254768e-03
  8.6820817e-01
 -3.9304283e-01
  3.8678664e-01
  1.0333186e-01
 -1.2599734e-03
  4.5477784e-01
 -1.5067375e-04
  2.6938722e-01
  2.3904182e-01
 -8.5476005e-01
 -8.7562972e-01
 -1.9875237e-01
  4.8450279e-04
 -2.8550732e-01
 -6.2754261e-01
 -3.0372140e-01
  4.1679293e-04
 -1.4793179e-04
  5.2420101e-03
 -9.2015645e-05
 -5.0735874e-03
  4.9090397e-04
  9.6635005e-05
 -1.0149709e-03
  8.2485585e-06
  4.6862307e-04
 -1.2861022e-04
  1.2585591e-01
 -1.1779848e-04
  2.0802020e-04
  3.4719429e-04
  5.1777719e-05
  8.1800008e-03
  1.4188723e-04
  1.4668707e-04
  5.2469419e-05
  1.4374593e-02
  2.0787159e-03
  3.2009560e-04
 -2.6019514e-04
  1.4488514e-04
  1.3739109e-03
 -8.9276814e-01
  4.1258503e-05
  1.8794627e-04
  2.3462297e-04
  4.4044497e-04
  7.4174379e-05
 -2.6518232e-03
 -6.0246681e-04
  5.1387609e-03
  6.9103462e-01
  1.0230622e-04
 -1.9790987e-04
 -2.6683966e-04
 -6.8859261e-04
  4.4380795e-04
  5.4032973e-04
 -6.5968314e-04
  5.3809312e-05
 -4.4989141e-05
 -1.2129548e+00
  2.9139035e+00
 -1.1825800e+00
  9.4173539e-01
 -7.0279069e-02
  7.5330031e-01
  1.0115577e+00
 -2.0712514e-01
 -9.6649599e-01
 -7.5700575e-01
  4.3208441e-01
  1.3019042e+00
 -1.9259676e-01
 -2.9606048e-02
 -4.7487289e-01
  8.5053951e-01
  1.2475972e+00
 -2.2399590e+00
 -2.8135367e-03
  6.3012719e-01
  2.9794335e-01
  7.0084894e-01
 -1.9887243e-01
 -8.9698145e-03
 -1.3761649e-01
  8.3138468e-04
 -5.9515145e-04
  1.6958920e-04
  3.0668421e-06
 -3.7800960e-02
  3.9381077e-05
 -3.0440165e-04
 -2.3939542e-04
  2.7206243e-04
  4.3814616e-05
  5.8861154e-01
 -1.9630349e+00
 -2.2118326e-01
  1.4370936e+00
 -8.5141379e-01
 -3.4734517e-01
 -3.8552849e-04
  2.5024562e-04
  2.2702105e-01
 -8.5601580e-01
 -1.4085989e-03
 -3.8402703e-01
 -8.8718478e-03
  1.0081239e-04
 -1.8524928e+00
 -2.3816724e-01
 -3.1085369e-01
 -5.5251248e-02
  2.2993442e-03
 -1.0991491e+00
  9.0222959e-05
 -1.2428688e-01
 -1.7817953e-01
 -2.0048925e-05
 -7.2334844e-01
 -2.8710786e-04
  4.4547152e-04
  1.3060021e-04
  1.8945881e-04
 -9.2823804e-08
 -6.0162758e-05
  3.2269181e-04
 -5.1903982e-07
 -1.2327198e-05
 -6.8030442e-04
 -1.6539390e-01
  1.7344621e+00
 -8.2484519e-01
 -1.2553502e+00
 -8.9346957e-01
 -2.4560835e-02
 -4.1720983e-01
 -1.4445516e+00
  1.1426970e+00
  4.1692427e-04
 -9.2229364e-04
  1.4889296e+00
  7.4082804e-01
 -5.4237057e-02
 -7.6842380e-01
  3.0404019e-01
  9.8085351e-02
 -2.9059414e-02
 -2.4126080e-01
  7.6584867e-04
 -2.0126989e-05
  9.4931287e-01
  2.0594187e-01
  1.0473505e+00
 -1.3053629e-01
 -2.7314022e-01
  5.3010190e-05
  1.3006318e+00
 -1.2408365e+00
 -4.0193388e-04
 -1.6506520e-04
  1.1797620e+00
 -5.6879640e-01
  1.0939282e+00
 -5.7121497e-02
 -8.6615747e-01
  2.6219059e-04
 -7.6339769e-01
 -1.8224027e-04
  1.3375190e+00
 -7.6128558e-06
  1.1684647e-04
  6.4817303e-01
 -1.1130629e+00
 -2.4144712e-04
 -1.8968712e+00
  1.5650629e+00
 -5.0738279e-04
 -1.1881663e+00
  1.8599522e+00
  6.4379758e-01
  7.9549955e-06
 -3.5057048e-04
  1.9141363e-01
 -2.0486680e-03
 -1.2144089e-04
  1.5510836e+00
 -1.3165829e+00
  1.8808557e-02
  1.3180548e-01
 -1.0117068e+00
  1.1786419e+00
 -1.2297999e+00
  1.8791592e+00
 -1.9032434e+00
  1.3484888e-01
  6.4379262e-04
 -2.7343800e-04
  1.2610348e+00
 -8.3781230e-01
 -2.6597491e-01
 -4.6712241e-01
 -1.2884554e+00
 -1.0763873e-04
 -1.0138335e-05
  1.5403343e+00
  1.5591112e-01
 -1.6364415e+00
 -9.0124613e-01
 -1.2142302e+00
 -1.0653027e+00
 -1.3062640e+00
 -9.7803658e-01
  4.9168181e-01
  4.0276945e-01
  5.8692753e-01
 -3.4021396e-02
  7.4643612e-01
  4.9156323e-01
 -1.8304435e-04
  1.2088711e-01
 -8.9325517e-01
 -4.2707241e-01
 -4.2644653e-01
  4.3843776e-01
 -8.3857530e-01
 -1.0181481e+00
  1.9518711e-01
 -2.5974455e-01
 -3.2743001e+00
  9.2824791e-03
  4.2522052e-01
 -1.3042792e+00
 -9.5140207e-01
 -1.9374197e+00
 -7.1437955e-01
  4.8161924e-02
 -1.0074694e+00
  1.6705056e+00
 -8.2346220e-03
 -4.9177418e-04
  7.0918000e-01
  4.4085592e-01
 -6.5675437e-01
  3.7835050e-01
  5.3591472e-01
  2.3692013e-01
  4.7250301e-01
 -3.8265778e-05
 -2.7513399e+00
  1.7650196e-04
 -1.9844931e-04
 -1.8638749e-01
 -3.6998963e-01
  1.2932186e-01
  6.2132853e-01
 -3.9497616e+00
 -1.2678507e-03
 -1.2558762e+00
  1.3758364e+00
 -3.5194486e-01
 -3.4495965e-02
  7.2323851e-04
  2.0042881e-01
  1.7436274e-05
 -2.0796296e-01
 -2.2479937e+00
  1.6982021e+00
 -3.4620753e-01
 -5.8174211e-01
  1.9492349e-01
 -3.3791110e-01
  1.1914730e+00
 -2.6175892e+00
 -2.9222820e+00
  5.2837932e-01
 -4.3789507e-05
 -2.1054100e-05
 -1.1861306e+00
 -9.1579132e-04
  3.3042681e-01
  5.8386183e-01
  1.2219834e+00
 -1.3084465e-01
  3.1971402e-04
  2.3197148e+00
  1.8566442e+00
  1.8260652e+00
  1.6494832e+00
 -8.4350169e-01
 -3.2068114e-04
  8.3153782e-04
  1.2051123e-03
  5.3500378e-04
 -1.6805797e-04
 -3.4056787e-04
 -1.3624673e-01
 -5.0641113e-04
  1.4727752e-04
  2.4337921e-04
  1.3256854e-01
 -8.1719828e-01
  1.2416642e-03
  4.1801594e-02
  6.6060078e-01
  9.1837940e-04
 -1.2212871e+00
  1.8004556e-03
  5.4716581e-01
  8.6477333e-01
 -1.1848471e-04
  6.2570754e-03
 -5.3749548e-04
  2.5480647e-05
 -3.2711928e-03
 -3.1065589e-05
 -1.1742338e+00
  5.3714171e-05
 -9.2794624e-04
  5.4422324e-04
  4.8378654e-04
 -5.1751820e-04
  1.7310254e-01
 -2.6024536e-05
  1.8176303e-04
  5.5336796e-02
  1.1678411e+00
  8.2934537e-05
  9.2657909e-02
  1.0563271e+00
  1.5973459e-03
  2.0428408e-04
 -2.4752846e+00
 -9.3627161e-05
  1.6691415e-03
  2.1653087e+00
  4.0309221e-01
 -6.4821392e-03
 -2.4984393e-01
 -8.3128315e-01
  1.9782827e+00
 -2.7392533e+00
  1.9719596e-03
 -7.9928011e-01
 -7.5793460e-02
  1.4554643e-03
  2.6669266e-04
 -1.7481070e-04
 -3.1964865e-04
  1.2356535e-04
  4.4571156e-05
 -1.0181167e+00
  5.6185814e-05
 -2.8774428e-05
 -2.0885187e-04
  2.8681889e-04
 -7.9014360e-05
  2.4318135e-04
 -1.6950358e-03
 -1.5281223e-03
  4.4758664e-04
 -4.8059988e-05
  6.4738520e-04
 -3.6583915e-05
  1.6669565e-04
 -4.3767333e-04
 -1.8453533e-03
 -1.5584583e-04
 -7.7077141e-04
 -2.6925998e-05
 -7.9525105e-04
  3.3497617e-01
  3.5599634e-04
 -3.1768028e-05
  5.0865515e-04
  9.7667646e-01
 -1.0494673e-01
 -7.1855229e-01
  1.1978359e-01
  1.3960642e+00
  2.5184371e-04
  9.1629066e-03
  6.4534681e-05
  7.1289629e-02
  6.2510706e-05
  1.6491130e-03
 -1.1748638e+00
  2.2137304e-01
 -2.0537458e-04
 -3.2217929e-04
  6.4105989e-05
  1.7731078e-04
 -5.2768609e-04
  1.9336948e-03
  4.7629303e-05
 -1.4228662e+00
 -1.0635444e+00
 -9.7173274e-01
  2.7791128e-01
 -1.8263423e+00
 -4.9035507e-01
  1.1683840e-01
  2.7478884e-03
 -2.1045113e-01
 -1.2580917e-03
 -2.7885985e-01
  2.3730245e+00
  8.2816496e-02
  3.4288239e-01
 -1.7246236e-01
 -2.6844731e-01
  2.1710441e+00
  9.0510517e-01
  1.3874747e-01
 -2.1786863e-01
 -1.1509518e-01
  7.3710215e-01
 -8.6802524e-05
  5.6783277e-01
  2.0757110e-01
  9.3820412e-03
  5.2885529e-02
 -2.1781758e-03
 -2.9827530e-02
 -2.9585080e-03
  4.9691461e-04
  5.7279871e-05
 -4.8519629e-05
 -1.0122268e-04
 -7.3505635e-04
 -5.7344732e-04
  1.6000243e-04
  2.4858373e-04
  5.9354393e-04
  1.0553397e-03
  7.3882948e-06
 -1.9859620e-04
 -8.1484392e-04
  3.2123685e-04
 -2.3396367e-04
  1.2481886e-04
 -3.0260342e-01
 -2.4131897e-03
 -5.5918732e-04
  2.4426388e-04
 -1.9737836e-03
  3.3150432e-01
  8.1736725e-05
  1.4123908e-04
  1.4027071e-04
  2.4865530e-04
  8.4096700e-02
  3.1953666e-04
  3.8079292e-04
 -1.3243571e-05
  3.4558032e-06
 -6.5354997e-04
  1.0613279e-03
 -5.5145156e-05
 -1.5011350e-04
 -8.9437897e-05
 -3.2551412e-05
 -3.1244828e-04
  1.4937596e-03
  9.9331330e-05
 -6.3212443e-04
 -4.9383070e-05
  2.8436011e-04
  1.2527697e-01
  9.3601531e-01
  1.6045543e-04
  1.6099994e-01
  2.1615281e+00
 -1.8585216e-04
 -1.8066917e-04
 -1.8340183e+00
 -2.5428572e-01
  2.1719012e+00
 -4.2738467e-01
  1.4489526e+00
 -5.5025023e-01
  1.7114501e+00
  3.6458115e-04
  4.6993792e-01
  2.8851838e+00
  5.1266761e-03
  1.9946244e-02
  1.1957658e-04
  4.2245336e-04
  1.0786751e-01
 -7.2407820e-05
 -1.2402738e-02
 -3.9214872e-05
  4.0447345e-04
 -2.9338652e-04
 -2.4360737e-04
 -2.2099183e-01
  8.0945516e-01
  7.2304501e-05
 -2.3618870e-04
  5.4196978e-04
 -4.0344632e-01
 -2.5926967e-04
  6.0058053e-04
  8.6592125e-05
 -1.1432350e-03
 -9.8949252e-04
 -2.1670492e-01
 -7.6568977e-05
 -3.4132579e-04
  9.7046955e-04
  4.7818423e-04
  3.1918805e-04
 -1.2953038e-05
 -4.8053046e-04
 -3.3557659e-01
 -4.6908131e-01
  1.6738496e-03
  2.5741210e+00
 -7.0258832e-01
  5.7357138e-05
  3.0997617e-02
  7.5429547e-05
  1.8520665e+00
 -2.1807213e-04
  2.4982037e-06
  1.2818165e-04
 -2.5908457e-04
  3.2909290e-04
  1.3129709e-04
 -8.3544641e-04
  9.6457731e-03
  4.1866762e-04
  9.1156369e-05
 -1.0833351e-04
 -1.7926081e-04
  9.3583600e-04
  1.8990783e-03
  4.5428364e-04
  1.6017996e-04
 -1.0857728e-03
 -5.4294005e-04
 -1.6968186e-03
  1.0253341e-03
 -5.1521184e-04
  1.0982097e-02
  4.0444699e-03
  3.1752873e-04
 -1.3876292e-02
  8.9648324e-01
  4.1531080e-01
  9.5096314e-03
 -3.0918169e-04
 -1.0387698e-03
  3.4525867e-03
 -1.2458005e-05
  1.6379834e-04
 -2.4791945e-05
  5.0547722e-05
  1.6949637e-04
  5.3034211e-04
 -4.3463990e-02
  1.1323464e-04
 -2.1004772e-03
 -2.1538757e-04
  3.0879540e-04
 -1.4917410e-04
  5.4859440e-04
  3.3940247e-05
 -2.1168029e-04
  2.5501841e-01
 -1.5239581e-04
  7.0397262e-05
 -4.6522189e-05
 -1.4321500e-04
 -7.7747839e-04
 -5.9544848e-04
 -5.0441665e-04
 -1.6384614e-03
 -1.0954705e-03
  4.7002803e-04
  5.2108443e-01
 -1.0468349e-04
 -7.9959855e-06
  2.0318624e-04
 -2.8927714e-04
  2.5880718e-01
  4.1432123e-04
 -3.9311391e-01
 -1.6840641e-01
  5.0979207e-04
  1.9164206e-02
  3.0534266e-04
  2.4790157e-04
  1.0177018e-03
 -1.4432657e-05
  2.8852120e-01
  6.3587952e-04
 -4.7014502e-05
 -5.0343486e-05
  3.1472460e-04
  5.9652788e-04
 -5.9554281e-05
 -4.0697903e-04
  9.7192865e-04
  2.5209794e+00
  1.0993180e-04
 -3.1717795e-01
 -1.3106550e+00
 -1.6625115e-03
 -4.0833056e-01
 -1.1226388e-01
  1.4002148e-05
  3.0664299e-04
 -4.8858988e-01
  4.3754664e-01
 -1.5187505e+00
  4.3773448e-01
  1.1559970e+00
 -1.4310281e+00
 -1.8782325e+00
 -1.5250801e+00
 -2.5382227e-01
 -1.8903357e+00
  4.3066764e-01
  2.1101737e-01
 -7.3929310e-01
 -1.4087299e-04
  1.2454774e-02
 -3.5773891e-01
  1.3208560e+00
  3.0423161e-01
  6.6153631e-02
 -6.0128546e-01
 -1.0954053e-02
 -9.3297531e-05
  4.1411931e-05
 -5.8988814e-04
  1.1103008e-03
  1.0184835e-04
  8.6299366e-01
  1.2951339e+00
 -4.6738866e-04
  3.6454925e-01
  5.9365103e-04
 -2.0293269e-04
  1.0294577e-01
  9.7592656e-06
 -5.3105981e-05
 -1.4042207e-04
 -3.4771580e-01
 -3.4494761e-03
 -3.9692366e-04
  8.5054475e-01
  3.8225329e-01
  6.2282389e-01
  1.2152587e+00
 -2.4711467e-01
 -5.3976434e-01
 -1.6803625e-01
  1.3372869e+00
 -5.7911943e-04
 -1.0059786e-04
 -4.0227422e-04
  6.5127207e-04
 -5.3009961e-04
 -1.8185662e-04
 -4.0984806e-02
  1.2079530e+00
 -2.2608190e-04
 -2.5953649e-04
 -1.1707951e-04
  1.1176565e-04
  2.9657857e-04
  8.8902692e-05
 -1.8410763e-04
  4.7479896e-04
 -1.0692353e-04
 -1.6669929e-04
 -2.0250214e-04
 -2.4558575e-04
  8.6762868e-02
  1.0467385e+00
  1.3829806e-05
 -9.7320974e-04
  1.5365880e-03
  9.2838811e-05
  1.3820572e-04
  1.3279438e-04
  1.8037412e-04
 -2.8959612e-04
  1.2009157e-04
 -3.6277913e-04
 -4.4073338e-05
  7.9490797e-05
 -7.5225587e-05
  2.2469314e-04
  6.5307523e-04
  8.6718765e-06
 -5.8956549e-04
 -5.0833529e-05
  3.0488989e+00
 -1.2832087e-04
 -3.9722151e-04
 -1.0575275e-04
  3.8441049e-05
  3.7536051e-04
  5.2988314e-04
  6.9964510e-05
 -3.5071818e-04
  3.5228914e-01
  2.2848403e-01
  6.3100225e-01
  2.0142264e+00
 -2.2102883e+00
 -5.8005349e-04
  5.6302661e-01
  9.6902895e-01
 -2.3802860e-04
 -3.5997454e-04
  1.0939635e-01
 -2.3408929e-01
 -6.4084760e-04
  1.2260839e+00
  1.8118201e-01
  6.2663361e-02
 -1.1606673e+00
 -8.1219465e-01
  3.2814607e-01
 -9.0337259e-01
  9.2393458e-01
 -9.3965405e-01
 -6.2548029e-03
  4.6291569e-01
  3.5759240e-02
  1.3533109e-01
 -6.5342826e-01
 -1.9742686e+00
  3.0573858e-02
 -2.6001656e-01
  3.0390959e-04
  1.1000277e-04
  2.3600984e-04
 -6.6439963e-05
 -1.8209238e-04
 -1.5440170e-05
 -9.8685557e-01
  1.8001726e-04
 -3.5474388e-04
 -2.6735611e-04
 -1.0820503e+00
 -3.3423654e-04
 -3.6964731e-04
 -1.3016010e-04
  3.9929878e-06
  9.2438005e-02
  8.2033968e-01
  2.8053339e-04
 -7.2375574e-04
  2.4358701e-04
  2.0779989e-05
 -4.7358552e-01
 -4.0337187e-04
  1.5755141e-01
 -9.5532757e-01
  8.2194991e-04
  4.0466821e-01
 -1.7070031e-05
  1.6641572e-04
 -1.3896769e-04
 -2.2905272e-04
 -9.8406583e-02
  2.6389392e-04
  6.6173372e-05
 -5.2296958e-04
 -8.5137651e-04
  6.1712832e-05
 -3.7279693e-04
 -1.6125367e-04
 -5.9704582e-04
 -5.5652317e-06
 -4.2710069e-04
  1.2172101e-04
 -2.5987195e-02
  1.5171155e-03
  1.1857370e-03
 -1.0438787e-04
 -4.3038055e-04
  3.4093318e-04
 -4.3989447e-01
 -3.5367630e-05
 -4.0180314e-01
 -5.0981140e-01
  4.3855020e-04
  1.7608132e-04
  8.1708189e-05
  2.5774665e-02
 -4.5410532e-05
  4.2582354e-01
  5.3312670e-02
  1.9561435e-04
  3.2733184e-05
  1.0082256e-04
 -2.0755443e-04
  5.6647255e-05
  3.5397374e-04
 -3.0431229e-05
  3.7758343e-06
 -8.6207379e-05
  2.0982870e-03
  4.3973811e-05
  9.0081908e-04
  2.4001494e-03
  1.3960780e-04
  4.2750427e-04
  1.1923548e-04
  1.1415235e-04
  1.5973896e-04
  3.2638770e-01
  7.7076092e-02
  1.5059090e-05
 -3.0475992e-04
 -4.7362872e-04
  2.7033928e-04
 -3.9655974e-04
  8.8818327e-02
  2.0935206e+00
  7.0082890e-05
 -4.3105503e-04
 -3.5097116e-01
 -2.3586576e+00
  1.3926022e+00
 -8.1408376e-05
  1.6426438e-01
 -5.5527145e-01
 -4.6481224e-04
 -7.3586474e-05
 -3.1963491e-01
 -1.8299891e-03
 -2.8080060e-04
  1.1251159e-03
 -1.4772578e-04
  5.4456443e-05
 -1.5094019e-04
 -1.2401598e-04
  3.6380621e-05
 -1.2317427e-03
  1.9547604e-04
 -8.4201303e-05
 -6.7206606e-02
  6.5601047e-04
 -5.0283948e-06
 -4.1960346e-05
 -1.1097592e+00
 -1.9111707e-04
 -4.1452830e-04
 -2.7249027e-03
 -5.2147824e-04
 -1.9708752e-04
  2.5900544e-04
  2.0276662e-02
  9.0108681e-01
 -1.7465929e-04
 -2.9309895e-02
  3.9626625e-03
 -5.1267266e-02
  4.6234635e-01
  8.7771304e-03
 -2.9061241e+00
 -2.6467997e-01
 -1.9765763e-01
  1.6670542e+00
  2.2733516e-04
  1.1316375e-03
 -4.1558873e-05
 -1.6611561e-04
  4.0049636e-05
 -1.8122928e-05
  3.6183970e-05
 -4.1121969e-04
  1.1142409e-05
 -1.2376904e-04
  2.6052285e-04
 -2.7125670e-05
  3.6700614e-04
 -6.2936702e-04
 -7.9624413e-04
 -5.2846293e-04
  3.7744525e-04
  4.9337884e-04
 -8.2597500e-05
 -8.4230145e-05
  7.5642735e-01
  4.9101736e-04
  1.2694616e-04
 -1.7668982e+00
  2.6179047e+00
 -4.2030901e-05
 -9.4563448e-01
 -6.4672589e-02
 -1.4573088e+00
 -1.2243565e+00
  3.7980394e-04
 -3.2127194e-02
 -1.9758701e+00
  1.1468298e-03
 -6.1017351e-04
  1.8696396e-03
  1.0404896e-03
  4.6025766e-03
 -1.9912884e-04
  8.0597581e-04
  7.2188108e-05
 -5.3432235e-04
  1.8867616e-03
  2.1277531e-04
 -1.2339605e-04
  2.1469468e-04
 -1.2427082e-04
 -4.8677412e-05
 -8.0636423e-04
 -1.2263705e-04
 -4.2021967e-04
 -1.0137004e-03
 -1.2287680e-03
  7.3604456e-06
 -8.4703053e-05
  5.5444607e-04
  1.2014339e-04
  3.1172567e-05
  4.7644558e-06
  3.2420704e-04
 -4.2336865e-04
  2.4171092e-04
  1.4406748e-04
  3.3263503e-05
 -2.8245208e-01
  1.4647972e-04
 -1.1616922e-02
 -6.0055394e-05
 -2.0076308e-04
 -1.2260231e-03
  2.5845124e-04
 -8.4406398e-05
 -1.2663619e-04
 -2.3485665e-04
  9.0059439e-05
 -8.8174542e-04
  5.1473099e-04
 -2.5000947e-04
  1.2153399e-05
  2.0130386e-04
  3.9493365e-04
 -5.6182598e-05
 -4.6703823e-05
  5.0300539e-01
 -6.8969429e-01
  9.5954843e-02
 -1.7304015e+00
  1.2743588e-01
 -2.0351078e-04
 -2.4431652e-01
 -3.5216656e-01
  5.4372959e-03
  1.7817206e-04
  1.2227392e-01
 -3.0304864e-01
 -4.9757166e-04
  1.1364399e-02
 -2.2485372e-01
 -1.3273339e+00
  3.2943029e-02
  2.2134969e-02
  5.6754187e-02
 -1.3177726e-01
 -1.1240889e-01
 -7.0549411e-01
  4.4249207e-02
  5.0553018e-03
 -1.3426563e-01
 -1.1016530e-04
 -1.4796539e-01
  1.6116817e+00
 -1.3896365e-01
  1.9988181e-01
  9.2955386e-05
 -1.5915952e-03
  7.0950098e-04
 -9.2397153e-05
 -1.8813611e-04
  2.3802520e-04
  2.0511152e-04
  3.5156871e-04
  2.5466541e-04
  1.4987699e-04
  3.7993654e-04
  4.9563449e-05
  3.1592682e-04
  3.9683873e-04
 -1.1514752e-04
 -7.4772943e-05
  1.0971935e-04
  7.0379552e-04
  6.1244922e-05
 -1.9803153e-04
  1.1885817e-04
 -1.4230571e-02
  4.1967229e-05
  8.5086393e-01
 -3.2427233e-05
 -2.2657013e-04
 -2.8380482e-05
 -2.2004280e-04
 -3.6309316e-04
  7.0948277e-06
  4.2889055e-04
 -8.5079724e-01
 -5.2460691e-05
  1.5661854e-04
 -2.1507981e-04
  1.4150835e-04
  3.0777982e-01
  7.2979904e-04
  1.1491247e-03
  3.0624800e-04
  1.6175453e-04
 -7.2747476e-05
 -4.6070796e-04
  3.1834090e-04
  2.9832378e-04
 -1.9122612e-04
 -6.6196144e-02
 -5.3666509e-04
 -1.7215665e-04
 -1.0774971e-04
  6.5344553e-05
 -1.5183966e-01
 -2.4665958e-05
  3.4785873e-04
 -2.2157668e-05
 -1.9638193e-01
 -8.4977084e-01
 -2.1833640e-04
  1.0399432e-06
  8.9512803e-05
 -4.1781881e-04
  6.0278014e-04
 -1.6709657e-04
 -8.8817993e-05
 -2.2268295e-04
 -8.9740664e-05
 -7.2138700e-06
  5.6421854e-05
 -1.9469275e-04
 -1.9056872e-04
  1.2862773e-04
  2.9834223e-04
  4.2134193e-06
  1.8283316e-05
  2.5752868e-04
  1.6951063e-04
  4.9037135e-05
 -1.1314441e-04
  1.7734131e-04
 -2.4658602e-04
 -4.5555682e-04
 -1.9276534e-04
 -1.6865085e-04
  2.3092887e-04
  1.7078628e-04
  5.3529166e-05
  1.1364478e-01
 -1.2368720e-05
  9.1515662e-04
  1.8718609e-04
  1.0734245e+00
 -6.6978866e-01
  3.5251391e-01
 -6.5546669e-04
 -2.2246177e+00
 -3.2511976e-01
 -9.1467023e-01
 -9.3054652e-05
  2.8107292e-04
 -3.4649757e-04
 -7.2070943e-05
  2.7244651e-01
 -1.3462905e-04
  2.9941434e-06
 -7.2243193e-04
 -3.9267819e-04
  6.9792564e-05
  8.9240079e-05
  1.6832628e-05
 -1.2453497e-04
  1.9337212e-04
 -9.3593996e-04
  2.3245254e-04
 -8.5622221e-01
  1.7188482e-02
 -4.3165014e-04
 -1.1872089e-03
 -1.9722778e-04
  4.8111446e-04
 -2.8238085e-04
 -1.7826041e-03
  2.6455316e-01
 -9.5843756e-01
  3.2171439e-02
 -4.8685497e-01
 -1.1606562e+00
  2.9842684e-02
  2.5465339e-01
 -1.0162431e+00
  2.8964335e-01
  8.9486057e-05
  8.9492860e-05
  6.3689239e-04
  1.8184928e-05
  9.1967674e-04
 -2.4904463e+00
  1.5748678e+00
  2.5281057e-01
 -9.5878451e-05
  6.9870222e-01
 -2.2448431e-04
 -7.2816380e-05
 -5.4924349e-05
  1.2894956e-05
 -1.4098805e-04
  5.4770836e-04
 -1.5142839e-04
  1.7827588e-04
 -1.2639682e-04
  9.4845804e-05
 -2.9809357e-04
  1.8375121e-04
  7.7014578e-05
  6.5256027e-04
 -7.2233604e-05
 -4.6460049e-05
 -5.7582359e-04
 -2.1104781e-04
  2.7998805e-04
 -2.5288036e-04
  8.6226180e-05
 -1.6711485e-01
 -6.9325506e-05
  6.4774754e-04
  4.5145332e-04
 -6.5728405e-04
 -2.9670768e-05
 -9.2139153e-04
 -8.6295091e-05
  1.1118042e-03
  2.1723051e-04
  3.2298380e-04
  3.3511740e-05
 -6.7598819e-05
  5.8469301e-05
 -1.3436565e-04
 -2.8196504e-04
 -1.2934132e-05
 -7.9524209e-05
  6.4168424e-05
 -2.2782693e-05
 -1.1543653e-03
  1.4601651e+00
  1.2272087e+00
 -2.2724011e+00
 -1.2669541e-04
  2.2453329e-02
  1.9001765e-02
  2.5275233e-04
  6.0530305e-03
  4.8367021e-04
 -1.3961773e+00
 -1.0932607e-01
  2.7604024e-03
 -2.4445191e-01
  2.8229234e-01
  7.7951223e-01
 -1.0177564e-01
 -9.3417846e-02
  2.6881433e-01
  5.5776536e-01
 -7.4546969e-01
 -1.0365283e-01
 -7.9680688e-04
 -7.0756511e-03
 -6.2550847e-05
  3.6203629e-01
 -5.0779909e-01
  2.0274604e-02
  8.2699706e-05
 -2.7571169e-01
  4.8121737e-04
 -6.1796565e-04
  2.6556596e-04
  3.0773148e-04
 -1.0866150e+00
  9.2049170e-01
  1.2563828e+00
 -1.8849705e+00
  3.1456068e-01
 -1.4676111e+00
  1.1169285e+00
  4.0103056e-05
 -3.7952152e-04
 -6.7790240e-02
 -1.1955489e+00
  1.6994660e+00
  3.8097687e-02
  1.4391958e+00
 -1.7953327e-01
 -8.9897168e-01
  1.6700338e+00
  1.6943543e+00
 -1.6567902e-01
 -9.4081789e-01
  2.1453631e-01
  6.4679503e-01
  5.3086122e-03
 -1.9747362e-02
  7.8904295e-01
 -2.0040545e-01
 -7.3437786e-01
  4.4421965e-01
 -4.7754130e-01
  1.4351177e+00
 -3.1184834e-05
  6.5762695e-05
  1.8839346e-04
 -4.7612947e-04
 -1.3431690e-04
 -2.3948918e-03
  9.6910167e-01
  1.1630708e-01
  6.8555099e-01
  3.3458608e-01
 -5.2461940e-01
 -7.5242400e-01
 -1.5379997e-05
 -4.0574130e-05
 -2.0337368e-03
 -2.1343329e+00
 -7.4081987e-01
 -5.5733824e-01
  8.9717740e-01
  1.0669616e+00
  7.6862134e-02
 -2.6267004e+00
  4.5282948e-01
  3.5688409e-01
  1.9177964e-01
  1.9207879e-04
  1.3276692e-01
 -2.3235782e-05
  1.0262368e-01
  9.7272045e-05
  1.7397149e-04
 -5.0270800e-03
  3.1268544e+00
 -3.6612203e-04
  2.6752581e-04
  1.9274525e-04
 -1.5305022e-03
 -1.3823718e-04
 -1.1146906e-04
 -1.4642660e-04
  1.0333096e+00
 -3.8606596e-01
 -2.8498012e-01
 -1.0660933e+00
  4.9838859e-01
 -4.8647752e-01
 -3.3741102e-01
 -2.8915355e-01
  5.3660371e-03
  2.2630110e+00
 -4.1896386e+00
  1.8273467e-01
  4.6796700e-01
 -1.0370159e+00
  2.2996879e+00
 -8.5899884e-01
 -3.2281679e-01
  2.0749834e+00
  1.8090488e-02
 -1.8634145e-01
  1.0624295e+00
  7.0420259e-01
  2.6164696e-01
 -1.3843223e+00
  4.0378428e-01
 -8.6157140e-04
 -5.8270675e-01
  1.6468151e+00
 -9.0245798e-02
  6.8294722e-01
  1.2827528e-04
  1.1813146e-03
  2.1904394e-05
 -4.3204581e-04
 -1.4205316e-04
 -4.6743886e-04
 -1.1352188e-04
  4.8777878e-05
 -2.9187062e+00
  5.6358211e-04
  1.8602310e-04
  1.5329651e-04
 -7.1698474e-04
 -3.5005179e-04
 -1.4344166e-05
  3.0170963e-04
  1.5298274e-02
  1.2804648e-04
  4.3481722e-04
  6.3312866e-05
 -4.6473205e-01
  1.4434191e-02
  2.0437574e-04
  1.4552749e-04
  1.0565004e-03
 -1.6761235e-04
 -3.5434417e-04
  1.4942170e-04
 -1.8807222e-03
 -7.2756047e-05
 -1.1039167e-04
  1.1421305e-03
  2.5745654e-03
  7.7212718e-04
 -1.6493844e-04
  3.4822946e-04
 -1.8285755e-04
 -1.1578931e-03
 -2.6729866e-05
  3.8600259e-04
 -2.4391338e-07
  6.0390674e-05
  2.4814467e-04
 -1.1601788e+00
 -1.0310563e-03
  1.5894599e-04
  1.3947832e-04
  4.3072284e-04
 -1.0735474e-04
  3.0280327e-04
 -5.7159686e-03
 -7.7925058e-04
 -6.0624001e-04
 -4.1996351e-05
  7.2260018e-06
 -5.6505558e-04
 -2.0814631e-02
  1.5149651e-04
 -2.0902943e-04
 -1.7565015e-03
  2.5379192e-03
  6.5000713e-02
 -5.8635633e-04
 -4.4289441e-04
  1.1910448e-03
  4.8376093e-04
 -2.6945028e-04
 -8.0145476e-04
  2.6331047e-04
  1.1190970e-01
  4.2377389e-04
  7.1313727e-05
  2.0100285e-04
  1.6372613e-04
  1.5312544e-05
 -4.1326843e-04
 -7.4976665e-04
 -7.2939074e-05
  6.6942506e-04
 -6.1147922e-04
  6.1374405e-05
 -2.4083571e-05
 -8.8513607e-06
 -7.8956183e-04
  1.3016145e-02
 -1.8690713e-04
  8.6535426e-04
  2.8414726e-03
  1.6367559e-04
 -3.6856241e-04
  2.4114842e-04
  5.9078855e-05
  2.3207346e-04
  4.4928334e-04
  1.3733278e-04
  2.0617546e-04
  8.0512010e-04
 -1.8887631e-04
  1.7520167e-04
  1.4661101e-04
 -2.3374958e+00
 -1.6203980e-05
  2.1113931e-04
 -1.3478061e-03
 -2.2876669e-05
 -8.7115470e-05
 -1.4028503e-04
 -4.9364608e-04
  6.5667133e-05
 -5.8636378e-04
 -3.0490542e-02
 -2.8361892e-04
 -4.6566364e-04
  2.0665527e-04
  4.3104877e-04
 -9.5516507e-04
  1.4007282e-04
  8.6251216e-04
  2.7301510e-05
 -3.1404153e-02
 -2.6181113e-04
  1.1483459e-03
  3.6262290e-04
  7.0413525e-06
 -3.4788840e-07
  5.0684273e-05
 -3.4692531e-04
  3.7113143e-04
 -2.1401358e-04
 -1.9375680e-01
  5.6642850e-05
 -1.5236228e-03
 -3.9287581e-04
  2.2883467e-04
  4.5451830e-04
  2.5451987e-04
  5.2113557e-01
  2.0788546e-05
  1.3811828e-03
 -7.5558675e-03
 -6.3185621e-04
 -2.2509064e-04
  7.3340438e-05
 -2.7782249e-04
  4.3447109e-04
  3.8726843e-04
  1.7878604e-04
  6.9257419e-04
 -3.3470544e-05
  6.9449797e-02
 -9.3819521e-04
 -4.7758888e-04
 -1.4056530e-04
 -3.1023554e-04
  7.1751967e-04
 -1.8204795e-04
  2.1216564e-01
  5.2413231e-01
 -1.2568642e-03
  2.7524043e-04
  2.1821195e-04
  9.2293370e-01
  2.0499546e-04
  2.7613950e-04
 -3.6089914e-04
 -5.0846145e-05
 -4.0007551e-04
 -8.3045132e-04
 -1.9178572e-04
 -3.9067311e-04
 -8.9965011e-05
 -6.8146757e-05
  2.8109085e-04
  2.6112777e-04
  2.3863062e-04
 -6.0357466e-05
 -4.1247008e-04
  1.9824662e-04
  1.6600432e-05
  9.8693352e-05
  4.9784207e-06
 -2.0991967e-04
 -2.6413164e-04
 -1.8068354e-04
  9.4334777e-05
 -4.1831623e-05
  2.0227468e-02
 -3.9602217e-04
 -2.4186973e-04
  3.1913299e-04
 -4.8502776e-04
  3.6209524e-01
  3.9478273e-05
  4.8175658e-05
  2.9408035e-04
  5.3366693e-04
  9.5033392e-05
  3.1478290e-04
  3.1986824e-01
 -1.1750572e-04
 -3.3296866e-04
 -2.7873832e-01
 -1.8158098e-04
 -2.1867709e-04
 -1.8664260e-04
 -5.2189128e-04
 -5.5794490e-06
  7.3545903e-06
 -1.5400066e-04
 -1.4322562e-04
 -1.0357719e-02
 -7.7379118e-05
 -4.7559162e-05
 -8.8992628e-04
 -1.9045730e-04
  3.5323680e-04
 -1.8053318e-04
 -4.0130923e-03
 -5.8399583e-04
  2.2318798e-04
  8.8927743e-05
 -3.4919992e-04
 -1.5551463e-04
  1.3982237e-04
  6.3149091e-05
  5.4734130e-04
 -2.8940467e-06
 -8.8002933e-05
 -2.9375523e-04
  1.7977647e-04
 -3.6199996e-05
  1.1712804e-03
 -3.4210589e-04
 -4.3253243e-02
  1.6963664e-05
  3.5297670e-04
 -4.1964752e-04
  2.6794491e-05
  6.5389824e-05
 -4.9371831e-04
 -5.6734547e-04
 -1.1334623e+00
 -1.5783169e-04
 -1.3393364e-04
  8.4445509e-04
 -1.4194394e-04
  8.2737759e-05
  1.9275672e-04
  1.0402022e-03
  3.3409768e-01
 -2.9223567e-05
 -6.3919117e-07
 -1.9723808e-03
  8.7569162e-05
 -1.6253522e-05
 -1.3120126e-04
  3.2896262e-01
 -2.7834444e-04
  1.9117531e-03
 -9.6971329e-05
  1.2265328e+00
 -6.3118798e-04
  1.9500414e-05
 -6.4995824e-03
  5.5021105e-06
 -1.1051298e-04
  1.5374784e-01
 -7.8233285e-04
 -3.5495320e-04
 -2.5287661e-01
 -8.6154971e-05
 -2.0882383e-04
 -4.7665239e-06
 -5.0355211e-05
  4.3396596e-04
 -2.7529957e-06
 -9.5287859e-01
  9.5789501e-04
  5.2371597e-05
 -1.9570889e-05
  4.5000535e-04
  1.3434528e-05
  1.3979791e-04
  1.7340550e-05
  5.2775270e-03
  6.1319345e-03
 -2.8120914e-05
 -9.1748289e-04
 -3.5419744e-01
 -3.8702518e-03
  3.6812742e-04
  3.4930336e-04
  1.0586153e-03
  2.5585367e-04
  5.4524244e-05
 -7.7998900e-01
 -6.3445464e-02
 -1.1049536e-04
 -3.7333420e-01
 -5.4986572e-01
 -3.9294648e-01
 -4.7131207e-02
 -4.6392635e-01
 -2.5853145e-01
  1.9357122e+00
 -4.9413752e-04
 -7.4835539e-02
 -1.7088625e-03
 -1.0872456e+00
 -6.2988245e-01
 -1.3918009e-04
 -3.3820455e-04
 -2.1521935e-01
  4.1070533e-01
 -4.5511886e-04
  2.9777765e-04
  1.2040972e-04
 -1.4486621e-03
 -1.6453276e-04
  2.4534322e-05
 -1.4370866e-04
  7.7610202e-05
 -4.2445965e-05
  3.7063855e-01
 -1.1559785e-03
  1.7725883e-04
 -2.1058055e-04
 -4.4297169e-05
 -4.2121561e-04
 -1.2227270e-01
  6.3324050e-04
  2.1365421e+00
 -9.6767733e-05
 -2.2068413e-01
 -1.4012838e-03
 -1.5245446e+00
 -1.3377010e+00
 -4.2937882e-05
  2.8518755e-02
  1.0313995e-01
  5.3733977e-04
  8.1376005e-05
  2.6058906e-04
  4.6877933e-04
 -3.7494502e-03
  4.1997517e-04
  9.1728596e-03
  3.7648213e-05
 -1.1192163e-04
  1.4091954e-04
 -5.4224231e-04
  3.2995438e-04
  1.1916216e-04
  5.2732049e-04
 -2.9059936e-04
  7.1740523e-04
 -1.3935581e+00
 -8.3304131e-01
 -1.0787658e-01
 -1.8585227e+00
  1.2490562e+00
 -1.8407696e+00
  5.4827434e-01
  9.5835000e-02
  1.1528903e+00
  4.6302804e-01
 -1.9733088e-01
 -2.9260468e-02
 -2.0267013e-01
  3.2052425e-01
 -4.7047508e-01
  1.1743575e+00
 -1.0918015e+00
 -9.6269017e-01
  2.7968660e-01
  9.6391732e-01
  2.7138001e-01
 -3.7498721e-05
  1.9311065e-02
  1.6621629e-02
 -1.5213490e-02
  1.3401894e-02
 -2.9478759e-01
  5.3311355e-02
  2.1614965e-04
 -9.3563227e-05
 -3.0659387e-04
 -1.3909509e-04
 -6.9554831e-04
  1.4139882e-04
  1.8960322e-03
 -1.3131859e-04
 -7.7123789e-04
  4.6569899e-01
 -4.6850962e-04
 -5.3180971e-05
 -1.7101355e-04
 -5.8105669e-04
 -1.2636640e-03
  1.2296538e-05
  1.5499103e+00
  2.7824053e-01
  1.1544651e-03
 -2.7463632e-04
  8.5635793e-01
  9.1967440e-01
  1.2237558e-03
  2.5648551e+00
  5.7896721e-01
  1.0363509e-01
  1.6200297e+00
 -1.1566051e+00
  4.4912015e-04
  3.1707313e+00
 -1.4735383e-01
  4.3839962e-05
 -3.3485779e-01
  6.4546562e-05
 -8.2412633e-05
 -3.1768216e-03
 -2.5278813e-04
  4.4038252e-04
 -1.1119658e-04
  1.6510268e-04
 -1.4316777e-04
  2.0841257e-04
  1.0591221e-05
 -2.0876613e-04
  3.0709777e-04
  1.0929419e-04
 -9.5260912e-04
 -4.5085666e-04
 -6.2214024e-04
  1.5938829e-04
 -2.4565484e-03
  8.7172148e-04
  9.6258774e-02
  2.0595590e-04
 -2.8586593e-01
 -2.6455227e-05
  1.3850118e-03
 -1.6598737e-01
 -4.4934626e-04
 -6.5593928e-04
  2.1127888e-03
 -5.8294408e-04
 -2.3960410e-01
 -1.5219016e-04
  4.8567579e-04
 -2.0049758e-01
  2.5763002e-04
  2.9717076e-01
  5.9126749e-05
 -1.8797546e-04
 -5.0326413e-04
  3.3539200e-05
  2.0767546e-04
  7.5288153e-05
  5.5611634e-04
  1.4370495e-04
  4.2670405e-01
 -1.2783586e+00
 -1.8846276e+00
  1.6042712e+00
 -1.1342870e+00
  1.1356378e+00
 -6.4400876e-01
  1.1527255e+00
 -1.1959733e-02
  4.0312991e-03
 -5.3360337e-01
  2.5861759e+00
 -4.8420113e-01
  4.7065616e-01
 -8.2953554e-01
 -4.5762119e-01
  7.5925821e-01
  1.6706816e+00
 -1.2169803e+00
 -8.2603619e-02
  2.3926033e-01
  7.7395242e-01
 -1.2253516e-03
 -8.3563459e-01
 -1.2585554e+00
 -5.1777261e-01
 -1.5223625e+00
 -2.3935001e+00
  1.7001119e-02
 -1.1063070e-01
 -6.4318912e-04
  3.6815995e-01
  4.8919002e-05
 -3.6535706e-04
 -4.1193140e-04
  4.5664423e-05
  1.4525717e+00
  8.9453615e-06
 -1.4993265e-04
 -9.8887719e-03
  1.5689952e-04
 -4.0759227e-05
  6.2269601e-04
  7.6545213e-05
  2.3187256e-04
  8.8623440e-01
 -1.6564639e+00
  1.8103140e-03
  5.9064468e-03
 -3.7379709e-01
 -3.2863823e-01
 -6.1861355e-02
 -1.7457157e-03
 -1.2249334e-03
  1.9027416e-01
  5.0637487e-04
 -3.9186556e-02
  3.3126416e-05
 -3.4570487e-03
  7.0063244e-05
  4.5690435e-04
  8.6900562e-02
  8.5964348e-05
  4.3005380e-03
  2.5707540e-01
  5.9578015e-04
  8.3132218e-05
 -2.0628182e-04
  5.6214667e-05
  1.9382588e-04
  2.7189386e-04
 -2.7438422e-04
 -1.2948080e+00
  6.8674202e-04
  4.5710930e-01
 -2.2147287e-04
  2.1891590e-04
 -7.9276142e-06
  1.9768186e-04
  7.2921823e-05
  1.1874839e+00
 -3.3232841e-01
  1.6615806e-05
 -2.0910147e-01
 -1.2838364e-05
 -1.9381446e-01
 -1.5856377e+00
  1.8085663e-04
 -8.8650845e-03
 -3.3801177e-04
  2.1204862e-04
 -9.2599046e-04
  1.7896337e-04
 -1.0628653e-04
  9.9490877e-05
  4.3742915e-05
 -2.0030241e-02
  3.7265051e-04
 -2.0027652e-05
 -2.6809421e-04
 -8.6104649e-04
  9.5730225e-05
  1.3081466e-04
 -1.4276688e-03
 -8.6109339e-06
 -9.8664039e-01
 -2.0520313e+00
  4.1150251e-01
 -1.0060644e+00
  2.1849599e+00
  4.0472978e-01
  2.7105665e+00
 -7.9611561e-04
  1.5125562e-03
 -1.2012207e-04
  2.3353598e+00
 -2.0827391e+00
 -6.6008228e-01
  1.7063577e-01
 -2.6223528e-01
  4.6510782e+00
 -1.9316465e+00
 -3.3501154e-04
  1.4151357e+00
 -3.9453042e-01
  1.4607604e+00
 -3.0272517e-01
  8.6208608e-04
 -7.5943798e-02
  9.8341519e-01
 -1.2284867e+00
  3.4082808e+00
 -2.8076378e-01
  2.6172956e-05
  2.1777301e+00
 -5.3084112e-04
 -2.8706162e-04
 -3.0055689e-06
  1.2504867e-05
  1.2288835e-04
 -1.3885107e-04
 -1.5863811e-04
  2.7379961e-06
 -2.8634238e-05
  9.7596040e-04
 -2.4485314e-04
 -1.9889073e-04
 -2.3498656e-05
  1.1212365e-03
  4.2677832e-05
 -1.9911997e-04
 -3.1312501e-01
  8.4396175e-05
 -1.1774438e-05
  7.7607408e-05
 -4.3272658e-04
  2.6988202e-01
 -6.7374473e-05
  4.5883178e-05
  1.4339646e-03
 -4.5323549e-04
 -1.7359166e-04
 -2.7151729e-04
 -5.5372002e-05
 -2.7002858e-05
  3.0677248e-04
  3.9425268e-04
  1.5302625e-04
 -1.4643015e-03
 -1.4095970e-04
 -1.1969488e-03
 -2.0770851e-04
 -1.2370535e-04
 -2.9793098e-05
 -2.5118247e-04
 -9.0019050e-05
 -5.2048027e-04
 -2.6126814e-04
 -4.2074595e-02
  1.9933932e-01
 -2.0387182e-05
  5.4921104e-05
 -6.0368411e-04
  1.4366440e-05
  2.2042984e-06
 -4.3952059e-02
  4.8648193e-04
  2.9783754e-04
  2.2695446e-01
  1.0723528e-03
  1.4919536e-01
  1.8176312e-02
  4.1835516e-04
  4.7912854e-03
  4.0883725e-04
 -3.3628225e-05
  5.7365696e-06
 -1.7667485e-04
  1.0191886e-04
  1.1468447e-04
  1.0929313e-03
 -3.0612475e-05
  2.0580442e-04
 -2.1054252e-04
  2.0715719e-04
  5.8970050e-05
  7.2275419e-05
  4.2242755e-04
 -1.4760034e-03
 -2.3397332e-04
  2.4248704e-03
  1.0478739e+00
 -2.5301860e-04
  1.7786607e-01
 -1.4845016e+00
 -5.0904296e-02
 -1.5257959e-03
 -3.0238030e-05
 -2.0693326e-03
 -1.1381987e-03
  2.4356969e-01
  6.3296998e-01
  5.2802265e-04
  3.6631700e-02
 -3.5783023e-04
  8.5726526e-04
  2.2547953e+00
 -1.5781007e+00
  8.7833852e-01
 -1.1151830e+00
  4.6252361e-01
  4.0388782e-02
 -4.6931178e-04
 -1.2281854e-04
 -3.3507224e-02
 -7.0127360e-05
 -2.9727578e-02
 -4.7350870e-03
  2.8009003e-03
 -1.1113359e-03
 -8.4228133e-04
 -5.4388825e-04
  2.9508228e-04
 -1.2061695e-04
 -3.0300784e-05
  7.7480268e-05
  4.3929912e-02
 -9.1969203e-03
  4.0055671e-01
 -1.1837211e+00
  4.9882256e-05
  1.1520981e-04
  1.2610843e-02
 -6.2579580e-04
  7.0197007e-04
  3.4653704e-04
 -2.3332682e+00
 -3.9250770e-04
 -6.9796431e-01
  4.5651868e-01
 -6.5687513e-01
 -7.0784874e-02
 -5.6565779e-01
  1.7240392e-01
  1.3248161e+00
 -2.1129441e-01
  1.5950660e+00
 -1.1392233e+00
  4.0184957e-04
 -6.6710174e-01
  3.4449447e-05
  8.9750910e-01
 -3.5369596e-01
  7.3785120e-01
 -1.2559858e-01
 -5.0092634e-04
  1.6569506e-05
 -2.1975087e-04
 -1.1550805e-04
  6.2135118e-06
  1.5617065e+00
  1.4628531e-04
 -1.2257882e+00
  5.8936529e-02
 -8.6812961e-01
 -5.1481667e-05
  7.2673285e-01
 -1.1260654e+00
 -9.6625928e-04
  1.0800958e-04
  4.8400331e-01
  6.7280465e-01
 -1.5047290e-04
  4.1368518e-02
 -2.0118339e+00
  1.2773004e+00
 -1.6057539e+00
 -7.2573788e-02
 -1.3985921e+00
 -1.3481864e+00
 -9.0557985e-02
 -9.9478519e-01
  4.2835803e-05
 -1.9465597e+00
 -1.1605488e+00
 -1.7439557e-05
 -5.4734126e-02
 -5.1125009e-02
 -3.4983302e-04
 -3.5246629e-03
  3.3743912e-05
 -1.3010092e-04
  6.5481421e-05
 -3.9039278e-05
 -4.6806873e-04
  5.4700512e-02
 -6.6297662e-01
 -1.2132312e-02
 -2.2233703e+00
  2.4439158e+00
  1.8379008e-04
 -6.8072802e-01
 -3.7934944e-01
  1.5190939e-03
 -1.0093182e-03
  1.2747553e-01
 -7.0643580e-01
  3.9830096e+00
  1.7432284e-01
 -5.2472645e-01
  1.2529714e+00
  3.6587361e-01
 -3.5192337e-05
 -7.2191155e-01
  5.8424312e-01
  5.7808706e-04
  5.7289138e-02
  3.5460249e-02
  4.9104659e-05
 -1.1959724e-03
  2.4957350e-02
 -6.4777455e-04
  1.2650194e+00
  1.5706143e-01
  8.4389411e-02
 -3.0847362e-04
 -1.8153148e-04
 -5.6525303e-05
 -3.4709479e-05
  5.0577011e-05
 -3.3337370e-04
  1.6148060e-05
 -1.3991627e-03
 -1.1048516e-04
 -1.5287813e+00
 -3.0826312e-01
 -8.7193109e-04
  7.4275886e-04
  1.3647315e-03
  2.4269750e-05
 -8.5366824e-05
  1.0375831e-03
 -2.6034203e-04
 -2.4994780e-04
  4.6489816e-04
 -9.3801773e-01
  2.5112242e-02
 -4.2687932e-01
  1.0932883e-04
  2.6973164e-02
  5.0980400e-04
  5.0197661e-05
  5.1939994e-04
 -2.5645530e-04
 -4.4642831e-04
  2.0096939e-04
 -1.4682727e-06
  5.7618681e-04
  1.4091800e-04
  1.5990830e-04
 -1.2916751e-01
  1.0263615e-05
 -1.5895195e-04
 -4.0005677e-04
  3.6320448e-04
 -8.6368835e-03
 -2.1131366e-04
  7.0617173e-04
 -2.0168347e+00
  1.0497000e+00
  6.0098636e-04
 -2.3631276e-04
  1.6342169e-04
 -4.6630964e+00
  7.8907609e-04
  1.9845951e-04
  1.2733064e+00
  5.4508870e-05
  7.9116321e-01
 -1.3315445e+00
  1.7047247e+00
  2.8829870e-01
  2.2796766e-04
 -7.9020992e-06
 -3.9894679e-03
  6.2124234e-01
  3.2590672e-02
 -1.4051718e-04
  3.6498223e-02
  1.4666378e-03
 -8.7130276e-05
 -3.8627911e-04
  8.9043504e-05
 -2.4497120e-05
  1.1694259e-04
 -3.0253828e-04
 -1.1955525e-04
 -1.1990535e-04
  6.3874373e-05
 -1.0020673e-05
  3.2218002e-05
  2.2409101e-04
 -1.4312025e-03
  6.2728810e-05
  9.3319302e-04
  3.0483643e-04
 -5.2237065e-05
  7.0056011e-04
 -6.9052429e-04
  1.2679330e-01
  7.3772797e-05
 -9.5089397e-04
  1.2706645e-03
  3.3113171e-04
 -2.0250761e-04
  2.8966679e-04
 -1.6198440e-02
 -1.8720784e-03
  1.2852908e-05
 -4.7448414e-04
  6.0171366e-04
 -8.0103800e-04
  1.4186339e-01
  2.2807936e-04
 -1.4881365e-04
  3.0942351e-04
  2.5926515e-01
 -3.8947116e-04
 -6.0449256e-06
 -2.7902392e-03
 -1.1065092e-05
 -3.3566254e-04
 -2.5765068e-04
 -2.4233427e-04
 -5.1019795e-04
 -7.4581522e-01
  1.2676784e+00
  6.8147943e-05
 -9.0109342e-01
 -1.1230561e+00
 -8.5365760e-01
 -8.1855410e-01
  1.5984514e-01
  7.4546856e-01
 -1.7847538e-01
 -9.1296214e-01
  2.6460884e+00
  5.5327043e-03
 -8.8917397e-02
 -3.3055526e-01
  2.1442387e-01
  5.8940536e-01
  5.2906031e-04
  1.3052369e+00
  6.1086114e-03
 -1.4495273e+00
  3.0577548e+00
  1.8134162e+00
 -2.5986221e-03
 -5.9757352e-01
 -2.5926085e-04
 -1.1412536e+00
  3.2979660e-04
 -2.1111214e-04
  1.4040891e+00
 -4.8726640e-04
  2.9210156e-01
 -3.4599053e-04
  3.0556042e-04
  4.5505725e-04
 -4.9440331e+00
 -8.1274825e-01
 -1.0454633e-01
 -9.0637766e-03
 -5.0346845e-01
  1.6167470e+00
 -5.1317400e-01
  1.3364552e-04
  8.8576697e-02
  5.3003475e-02
  4.4059706e-01
  1.9604155e+00
 -1.5348689e-01
 -4.7795016e-01
 -2.3792478e-01
 -1.8245889e-01
  4.3119368e-01
  2.5848043e-01
  6.8390357e-01
  4.2565981e-01
 -8.3270214e-02
  4.2136025e-01
 -2.3796297e-04
  7.6004243e-01
  1.0395455e+00
 -2.6137964e-04
 -4.1095588e-01
 -1.2198203e+00
  4.1382834e-02
 -1.5780578e+00
  1.0534037e-03
  1.2980981e-04
  1.6134760e+00
  7.9378978e-08
  1.2436726e-04
  1.6797933e-03
  4.5504548e-05
 -3.7891947e-05
 -4.8718317e-03
 -9.3058478e-03
 -1.3255866e-03
 -2.8101730e-04
  2.0645476e-04
 -1.1941750e-03
 -1.5424420e-04
 -6.5507571e-05
  1.0553234e+00
  3.3995981e-05
 -1.6164091e-04
  1.5150099e-04
  1.7212183e+00
  4.3030173e-01
  1.5005673e-04
 -1.7168891e-04
  8.6412579e-01
 -9.5243413e-06
 -1.1672907e-01
  8.4500411e-05
  7.1358528e-07
 -3.1620164e-03
  7.9799071e-03
 -2.8781269e-03
 -1.4949805e-04
 -3.0300394e-05
 -1.3010675e-03
 -8.0080982e-04
 -3.6509571e-04
 -5.4756436e-04
 -1.0132721e-04
 -5.3647038e-04
 -1.4222684e-04
  2.1872716e-03
  1.6636735e+00
  9.4627047e-01
  1.3270153e-05
  2.2750224e-04
 -3.7719181e-04
  2.0086163e-05
  2.7753910e-04
 -2.4568802e-04
 -1.1631933e+00
  3.7732232e+00
 -5.5643404e-04
 -6.7383889e-04
 -9.3853545e-05
  3.5243528e+00
 -2.4544141e+00
 -2.1071787e-04
  6.3793980e-02
 -2.6658702e+00
 -1.1812012e-04
 -2.3418359e-01
 -2.6261274e-04
 -1.1170029e-03
  1.9405191e-03
  2.0194526e-01
  3.3797610e-01
 -6.0732284e-04
 -1.3749261e-03
 -3.1517400e-05
  6.6729503e-05
  1.3305603e-03
 -1.0647825e-06
  1.1003902e-04
  1.2684438e-03
 -2.0601532e+00
 -4.6981219e-04
  1.4145025e-05
 -7.3349172e-01
  1.0483061e-04
 -1.8559769e-04
 -1.5739497e-05
 -3.9807695e-05
  1.6707132e-03
 -2.7404429e-04
  7.7267941e-03
 -4.8371369e-01
  1.3829379e-01
  9.0342069e-01
  2.7222373e-03
 -3.8494185e-01
  4.0623286e-01
 -5.7802792e-04
  9.1186708e-01
 -5.5930912e-02
  3.2344540e-03
 -1.4905804e+00
  1.3751304e-02
  1.8914145e-01
  4.5759901e-01
  4.3099940e-01
  3.9259508e-02
 -2.6139412e-03
 -1.8876868e-06
 -2.9582169e-04
 -1.7307530e-04
 -2.2294896e-04
  9.5151488e-05
 -4.4128858e-04
 -1.6117644e-03
 -5.3830049e-04
 -1.0640329e+00
  5.0552571e-01
  8.4270769e-01
  1.9265068e+00
 -2.6609543e-05
  1.7059995e-02
  4.8916304e-04
  9.8587094e-05
  3.0691264e-04
  5.4926181e-01
 -1.4637861e+00
  8.4676355e-04
  3.9812356e-01
 -4.0605697e-01
 -2.4484202e-01
  3.4393701e-01
  3.4486629e-02
  6.1847627e-02
  7.6335847e-02
  6.0784016e-03
  2.3734684e+00
  9.9261559e-04
  2.7909148e-01
  4.3877128e-05
  1.0207067e-03
 -1.1842352e+00
  7.2493567e-04
 -1.0241860e-03
  8.4724877e-04
  1.9637060e-05
  2.9309604e-05
  8.5350638e-04
 -1.8403432e-04
  1.0400709e-04
  6.3242958e-05
 -3.6853937e-05
  4.0226877e-02
  1.6354445e+00
 -6.9144997e-05
  1.1717335e-04
 -7.4218748e-05
  1.6871218e-03
 -2.2825818e-03
 -1.3539208e-03
 -3.3091707e+00
  1.7842808e+00
 -3.4586850e-04
  1.2123513e-01
  6.1745131e-01
  7.4474597e-01
 -2.6364517e+00
 -9.0406960e-05
  8.8584834e-01
 -4.2403817e-01
  2.9943330e-04
 -3.4072105e-04
  1.5392227e-04
  1.2094712e-04
 -5.7452243e-02
 -3.5562311e-04
  1.8280192e-03
 -1.9400620e-03
 -1.4520301e-02
 -1.4059199e-03
 -2.6001540e-05
  1.6882062e-04
  3.4513901e-05
 -7.9736456e-06
  1.1116950e-03
 -1.4631404e-04
  1.2740114e-01
 -2.1066671e-04
 -8.4205037e-03
  7.1889466e-01
 -3.4769470e-04
 -3.6344366e-04
 -5.6863671e-05
 -4.1534248e-04
 -9.0326369e-04
 -5.8153927e-01
  8.0542010e-01
 -1.6761890e-04
  3.1375252e-03
 -6.7840080e-04
 -6.9024229e-01
  1.8489758e+00
 -3.8240183e-04
  1.2148913e+00
  2.1177498e-01
 -9.1814749e-05
  1.8979339e-05
  3.5155856e-05
  5.9270544e-04
  3.6775070e-04
  5.4655550e-04
  9.2852517e-04
 -9.1991162e-05
 -4.6592046e-04
  6.8368763e-04
 -2.9626588e-05
 -3.3463697e-05
  5.7098083e-04
 -1.4576156e-04
 -3.5755883e-04
 -5.0813645e-01
  5.1446557e-02
  7.8391063e-04
  1.3930840e+00
  5.4306834e-04
 -6.8309542e-05
 -8.0028949e-05
  4.9910247e-03
  1.4761764e-04
 -1.2577158e-04
 -5.2655929e-01
  4.0793519e+00
  6.3385087e-04
 -4.1919332e+00
  3.9395827e-01
  9.9782306e-01
  1.8958591e+00
 -7.9491514e-01
  2.2351448e-01
  1.1006190e+00
  4.4526223e-02
  4.9349919e-01
  5.1782141e-04
 -8.1214702e-01
  1.2502416e+00
  1.7024046e-03
 -9.6978980e-01
 -7.2823139e-03
  2.9787177e-01
  7.8398213e-02
 -6.1303354e-06
  4.8755464e-04
 -1.4650301e-04
 -2.3538015e-04
 -1.1057520e-03
  6.1605760e-04
  2.4342746e-02
 -4.0608709e-04
 -2.7663037e-03
 -3.0308113e-01
 -8.5844396e-05
  1.2458541e-04
  3.1682523e-04
  7.8845565e-05
  5.6949951e-04
 -2.4469118e-01
  1.4462192e+00
  5.2300113e-04
  1.3903558e-04
 -2.2819341e-04
 -2.4868858e+00
  1.6212168e+00
 -2.9596275e-01
  8.4670150e-01
  2.3631193e-02
 -4.5516712e-04
  2.8803872e-04
  7.1545204e-05
  3.7129864e-03
 -7.4531167e-04
 -5.4045388e-05
 -9.2691387e-04
 -1.1983029e-06
  1.5318910e-05
  6.3528954e-05
  1.7773047e-04
 -5.1094161e-04
  2.0885009e-05
  5.9246436e-06
  7.0017195e-05
 -2.8406573e-04
  6.0800299e-05
  2.0845298e-04
  6.8421268e-01
  8.2935527e-05
 -4.0422830e-05
  1.9527746e-04
 -3.0333729e-04
  8.7916624e-06
 -1.7139598e-03
  1.4386843e-04
  7.3442531e-01
  7.6296819e-05
  6.7519498e-01
 -5.4320419e-04
  1.3556718e+00
 -1.8256923e+00
 -1.5127399e+00
  1.2257681e+00
  4.7501564e-02
  5.5929128e-04
  2.9034643e-03
  6.5159125e-05
  2.6872533e-04
  3.2269912e-05
 -2.6486394e-05
 -4.4041783e-01
  3.8787827e-01
 -1.3319534e-05
 -1.6396095e-04
 -4.6236709e-01
  3.4538281e-04
  1.9290109e-04
  1.1232577e-03
  1.9069339e-04
  1.3064281e+00
 -5.1191687e-03
 -1.4266130e-03
 -3.4534581e-02
  7.3845220e-01
 -4.4726606e-02
 -2.4164777e-01
 -4.5008159e-01
 -1.9580880e-01
 -7.6058839e-04
  2.6363626e+00
  1.7966425e+00
  1.4051335e-04
 -1.3174181e-02
 -1.8517247e+00
  2.4475858e+00
 -1.1217556e+00
  3.8735269e-04
  1.6952071e+00
 -1.3624647e+00
  1.8547645e-02
 -1.8005508e+00
  2.6245629e-02
  4.2315327e-02
 -6.2708780e-03
  6.9899601e-01
  1.0340382e+00
  3.5062632e-01
 -8.3352572e-01
 -1.9695458e+00
 -5.5950957e-05
 -4.0867319e-04
  5.3892651e-04
  5.1048505e-01
 -3.2866979e-03
  2.7371676e-05
  1.3411313e+00
 -3.3171144e+00
 -1.0929345e-03
 -1.7713124e+00
 -1.1618836e-02
  1.3935181e-03
  2.9562387e-04
 -1.8373521e-03
 -1.1629299e-03
  7.6932702e-05
  2.4167094e+00
 -2.5909129e-04
 -1.2458114e-04
  6.4701879e-01
 -1.6210980e+00
  1.4050727e-01
 -1.3914837e-03
  9.8900437e-01
  1.8252341e+00
  2.2689033e-05
 -1.1298621e-02
 -1.6845696e-03
  1.5276937e-05
 -2.9987741e-01
  2.0628658e-03
 -1.6771525e-01
 -2.8912313e-05
  7.9537352e-04
 -5.5170059e-04
 -2.6110857e-04
  2.4092773e-05
 -2.3944310e-03
 -4.5213263e-04
 -4.9327279e-04
  1.6258773e-04
  1.8181481e+00
  1.4213338e-02
 -3.2564469e-02
 -2.8646073e+00
 -1.8234950e-02
  8.7802168e-03
  7.2004198e-04
 -5.3463101e-01
 -1.3620679e-04
 -2.3064342e+00
  1.3661228e+00
  2.3259196e-04
  1.3105077e-01
 -1.9932868e-01
 -9.3468618e-01
 -9.4294709e-01
  3.4898953e-04
  1.0801880e+00
 -1.4061981e-01
 -7.3593971e-04
  6.1038882e-01
 -1.4855007e-04
 -6.3000154e-04
 -9.5817637e-01
  7.6706392e-01
  4.7195761e-05
 -2.7224970e-01
  9.6534137e-03
  3.1419924e-05
  2.3152787e-04
  1.7158769e-04
 -1.4385022e-04
  1.8985385e-04
  1.7597585e-04
 -4.0244561e-04
  3.5842674e-04
 -1.8204637e-06
 -1.0430427e+00
 -1.2954427e-03
 -1.2153604e-04
  2.8477665e-05
 -7.0846530e-05
 -2.8128145e-04
  6.4004317e-04
  2.5234316e-02
  8.9246321e-01
 -1.2807467e+00
  1.8137320e-03
  6.1895597e-01
  1.9795725e-02
  1.2208397e+00
 -3.8969451e-05
  5.3928822e-01
  2.2306955e+00
  2.0920174e-04
 -2.6640028e-04
 -2.2115083e-04
  2.9700328e-04
 -6.9931986e-05
  1.9803691e-05
  3.6638568e-04
  6.3887841e-05
  2.6866748e-05
  9.0074835e-05
 -6.6975120e-04
 -7.3495251e-04
 -1.4780578e-04
  1.2963971e-04
 -5.2994210e-04
 -7.7902141e-04
 -6.0192829e-01
  1.7687697e-05
  6.5050581e-03
  1.7464699e+00
  4.9550443e-05
 -6.9104857e-04
 -1.2213227e-03
  1.1634690e-04
  2.0641045e-04
  4.9237260e-01
 -4.3029867e-02
 -1.5019734e+00
 -2.4543865e+00
  7.8708494e-01
  6.2983372e-04
 -9.1612518e-01
 -5.8317522e-04
 -1.1182595e+00
 -1.8104941e-01
 -8.8095793e-04
 -2.1890137e-01
  9.2802769e-01
  3.8856830e-04
  1.6560314e-04
  1.7708270e-03
 -1.5761667e+00
  1.8682305e-03
  1.1998916e-02
  1.1967163e-04
  6.1294896e-04
  4.3586947e-04
  7.8012738e-05
  2.9944463e-04
  2.7757240e-04
  3.1946434e-04
  1.5798545e-03
  8.7149674e-04
 -2.2376456e-05
 -9.7700884e-04
  1.7317980e-04
  2.1461694e-04
 -2.3429984e-06
  1.3916200e-04
  1.8049763e-05
 -3.2146624e-04
  2.9923132e-04
  2.2859796e-05
 -8.3749628e-01
  9.5185116e-02
  1.2935775e-04
  1.0991719e+00
  9.1792186e-05
 -7.1680879e-05
 -1.8369703e-05
  3.6724628e-05
 -1.5980564e+00
 -1.3495151e-04
 -3.8532624e-05
 -1.1325656e-03
  4.0971529e-05
  8.4840969e-05
 -3.4780189e-04
 -4.3295685e-04
  7.2334267e-05
 -1.6948907e-04
  2.9472812e-04
 -2.8491663e-04
 -3.2292545e-04
  2.2694209e-04
  6.5250076e-02
 -2.9616523e+00
 -5.4530960e-01
 -1.4095329e+00
  1.7160887e-01
  6.8578345e-04
  7.5900301e-02
 -2.6756859e-05
  1.1219448e-05
  6.2965375e-04
 -1.4523963e+00
  2.2093604e+00
 -4.2302243e-04
 -8.9766592e-01
 -6.7783511e-01
  3.0448300e-01
  5.3206366e-03
  7.6639652e-01
 -1.0642168e-01
  2.0375083e-01
 -5.7769525e-01
  1.1447378e-01
  4.7763325e-03
  1.7937509e-03
 -1.3981409e-01
 -3.6494958e-04
  5.8329040e-01
  1.1813940e-01
 -2.1598713e-01
  8.5480387e-06
 -3.2964413e-04
 -3.6106059e-05
  8.5029955e-05
 -1.6218029e-04
 -1.7996716e-04
  8.0560363e-05
  4.4413636e-04
  2.7600914e-04
  1.2086916e-04
  6.5167731e-04
  5.8749298e-05
 -2.0318477e-04
 -1.5289095e-04
  4.9479201e-04
  2.7648275e-04
 -9.2248258e-05
  1.2006728e-01
  1.9495713e-04
  6.6609041e-06
  2.1912136e-04
 -6.9762051e-01
  3.5834515e-03
  1.5368361e-04
 -8.9241278e-01
 -1.6391775e-04
 -2.3238067e-04
 -8.4966997e-04
  6.7333650e-04
 -2.4825486e-04
  7.9113524e-04
 -9.6420416e-05
 -1.1452824e-04
 -7.0328228e-05
 -3.9320561e-04
 -1.5367080e-04
  1.4980070e-04
  4.8128236e-04
 -1.1253611e-05
  7.6437660e-04
 -6.5997847e-05
  2.0195720e+00
  3.1319673e+00
 -6.8768823e-01
 -1.3883396e+00
 -5.4451938e+00
 -1.0403633e+00
 -1.2365001e+00
  1.2186430e-01
 -1.6213974e+00
 -1.3205413e+00
 -5.5987561e-01
 -1.5154648e+00
  5.8826156e-02
 -9.0963376e-01
 -4.8776102e-01
 -1.9038299e+00
  6.0139644e-01
  5.6975729e-05
  6.5700233e-02
 -6.9017982e-01
 -1.0974425e+00
 -1.1818290e-01
  6.0435879e-04
 -2.3341170e-01
  1.6588820e+00
 -5.2812642e-01
 -3.0274260e-01
 -9.4332695e-01
 -4.5202055e-04
 -1.2439539e-01
 -2.3621217e-04
 -3.0286601e-04
 -7.5686886e-04
 -2.3008576e-04
  8.3513306e-03
 -1.2776880e-04
 -1.9189645e+00
 -7.0909315e-01
 -2.0309336e+00
 -1.2633888e-02
  3.2074171e-01
  4.1079653e-05
 -3.3976325e-01
  7.6521289e-01
  2.8001846e-04
  1.6944709e-01
  2.7402717e-01
 -6.0269685e-04
 -2.5001320e-01
 -1.1129544e+00
 -1.9927197e+00
  1.1479270e+00
  6.3843071e-01
 -4.5097157e-01
  7.5677043e-01
  1.5548230e+00
 -2.6825035e-02
  1.1485213e-03
 -8.8856596e-01
  7.4639291e-02
 -2.4178177e-04
 -2.2137172e+00
 -9.6819890e-01
 -1.3370100e-01
  2.3216158e-01
 -1.4734763e-04
 -2.4288672e-04
 -2.8686789e-05
 -3.8234497e-04
  2.6745676e-05
 -9.1274303e-01
  2.6622334e+00
 -1.5053102e+00
 -3.0978951e-01
 -5.4398332e+00
  8.0718870e-05
 -3.0056329e-02
  3.9633356e-02
 -1.6445000e-02
 -1.6133174e-01
 -2.1702306e+00
  8.6075127e-01
  5.5710775e-01
 -3.9374903e-01
 -3.6592472e-01
 -2.0874977e+00
 -1.3202937e+00
 -2.3314911e-01
 -1.7273873e-01
  8.4427077e-01
 -8.7771916e-01
 -9.4553792e-01
 -1.8302484e-01
 -3.6579911e-02
  3.0306343e-02
 -3.1788519e-03
 -2.3842177e+00
 -6.1661261e-01
  7.8853279e-01
 -1.4081852e+00
 -2.9948488e-04
  8.8382751e-04
  2.2873558e-01
  5.8159490e-05
 -1.4950139e-04
 -1.1119198e-04
  3.7252065e-04
 -1.7293102e-04
 -1.2347513e-05
  2.2829304e-04
  1.3020907e-04
 -1.1392416e-04
 -8.3492836e-04
 -3.2082770e-04
 -9.4145224e-05
  2.7643840e-04
  3.5192665e-01
  6.9497712e-02
 -3.4026778e-04
 -8.0074766e-05
  6.7239082e-05
  1.6952530e-03
 -5.4177258e-04
  2.9911944e-01
 -3.2765436e-01
 -4.2524720e-03
 -1.6698806e-04
 -3.4906468e-05
  6.5528275e-06
  7.4886062e-05
 -1.1139838e-04
  7.2939548e-04
 -1.9249751e-04
 -4.5384676e-04
 -9.6992386e-04
 -1.2286089e-04
  5.9429108e-04
  6.8779936e-04
  2.7432552e-04
 -8.6155029e-05
 -1.8901774e-04
 -1.7811821e-03
  7.2571367e-04
 -5.6712466e-05
  4.4250719e-05
 -6.6036737e-04
 -1.2874786e+00
  1.0201571e-03
  7.3719755e-05
 -9.7357907e-04
  2.5813770e-04
  2.4509014e-04
 -7.6989360e-05
  1.4392278e-05
 -1.7406303e-04
  1.8631730e-03
  5.2255136e-04
  2.1662765e+00
  9.1276952e-04
  3.7405248e+00
 -1.0383108e-03
  3.2396492e-04
  1.1386182e-05
 -5.2527361e-05
 -2.9464369e-05
  8.2487632e-03
  6.4806669e-04
  3.5161116e-05
 -8.8375826e-05
 -1.0702648e-04
  3.2933400e-04
 -1.7819564e-04
  3.7789106e-04
 -6.5013597e-04
  1.8170044e-04
  7.1818911e-05
  4.7213006e-01
 -1.1124966e-04
  1.0883481e-03
  1.5828904e+00
  1.0741901e-04
 -5.6252036e-05
  2.2827885e-04
  2.3762612e-05
  3.0901842e-06
  5.1218120e-04
 -1.1041290e+00
 -8.1034022e-04
 -1.3414253e-01
 -1.9399442e-05
  1.3029941e-04
  6.7887235e-01
  8.3088770e-04
  5.9040135e-04
  2.6861901e-04
 -3.7851623e-05
 -6.7318159e-01
 -2.1207465e-04
  1.0278307e-04
 -1.1753544e-03
 -9.5720449e-04
 -9.4045192e-01
 -4.1128066e-04
 -1.2171714e-04
 -1.3256930e-04
  2.0862189e-04
  3.7428221e-05
 -2.4712656e-04
 -2.4551526e-03
  1.8172334e-03
 -4.7125605e-01
  7.1422374e-01
  1.0426139e+00
  1.3936603e+00
 -3.9106879e-01
  1.0448852e+00
  1.7061353e+00
  1.2085092e+00
  6.7065227e-01
 -3.8216343e+00
  1.9500593e+00
 -1.7118205e-01
  1.0225526e-01
  8.8896823e-01
 -5.4418880e-01
 -4.8107398e-01
 -1.2374743e+00
 -1.1024610e+00
 -1.6688230e-04
 -2.0009067e+00
  2.0846195e+00
 -1.9961514e+00
 -8.3372706e-01
 -6.8822533e-01
  6.2774166e-02
  7.2117114e-01
  2.0900080e+00
 -1.8024750e+00
 -1.7494531e+00
  8.1547566e-02
  2.2222584e-02
  1.6072534e+00
  1.5866522e+00
  5.8919388e-01
  1.9741507e+00
  2.6826987e-05
 -5.1844192e-01
 -1.0166144e+00
 -8.5711741e-01
  1.4039090e+00
  4.6409079e-01
 -2.3451497e-01
  1.1195186e+00
  5.7599008e-01
  3.7591267e-02
  1.0630339e+00
  2.0064198e-04
  7.4841642e-01
 -1.0446134e-01
 -3.1511378e-02
 -1.6230921e+00
  1.1581833e-01
 -1.2200485e+00
 -4.3656565e-02
 -9.5665765e-01
  2.4060349e-01
  2.7604268e+00
  4.1189817e-01
 -8.5012525e-02
  7.5522602e-01
  1.0062704e+00
 -3.7717823e-02
  1.4361803e-05
  2.5797408e+00
 -1.5044674e-01
 -4.7732872e-01
  7.9031873e-01
  5.0988019e-01
 -9.8782361e-01
  1.0902424e+00
 -5.2605903e-01
 -1.5025971e+00
 -1.5428550e+00
 -2.5617619e-04
 -2.4469159e+00
 -9.9138582e-01
 -2.0370684e+00
 -2.5340331e-01
 -1.1141796e+00
  2.6220116e-01
  3.0674285e-01
  1.2743456e+00
  3.5314015e-01
 -6.4827079e-01
  3.1385279e-01
  4.4994423e-01
  7.6105458e-01
  8.3102804e-01
  1.9586150e-01
  7.6822138e-01
 -8.4456980e-01
  1.1394218e-01
 -1.5108782e+00
  4.7111565e-01
  2.7141577e-01
  4.8900294e-01
  5.4317164e-01
  3.4062973e-01
 -1.8759377e-01
  2.6475692e+00
 -4.6391487e-01
  5.3247279e-01
 -3.5980925e-01
  5.8201599e-01
 -1.3366657e-01
 -9.5335346e-01
  1.3680412e+00
  5.4886097e-01
  1.8567299e+00
  2.9193860e-01
 -2.0726679e-01
 -6.0837704e-01
 -2.3611052e+00
  1.6602342e-01
 -4.3086103e-01
  6.0818858e-02
  2.6738629e-01
 -4.5580822e-01
 -2.3026803e-01
 -3.2785985e+00
 -6.3976020e-01
  3.3749396e-01
 -1.7139530e+00
 -4.3184245e-01
  5.5928779e-01
  7.4975276e-01
  1.8378955e-01
  5.7606244e-01
 -1.5853339e+00
 -8.7140989e-01
 -6.5225160e-01
  1.1093537e+00
  5.5286348e-01
  6.4234066e-01
 -5.5895340e-01
 -1.7333999e+00
 -1.9159216e+00
 -6.1880529e-01
 -4.7109953e-01
  6.5961534e-01
  8.6738819e-01
 -4.7549021e-01
 -5.9305876e-01
 -6.9171697e-01
 -3.4183431e-01
  3.2199621e-01
  1.0542277e+00
 -5.2978975e-01
 -9.2539299e-01
 -3.0899510e-01
  5.9113681e-01
 -4.5617977e-01
  2.8164880e+00
  1.7650755e-01
 -1.6976806e+00
  9.8844606e-01
 -1.4278915e+00
 -3.2025632e-01
 -2.9596179e+00
 -1.9872823e-01
  6.4851588e-04
 -1.2775317e+00
  1.6997060e-04
 -1.3463241e-04
  1.6312063e-04
  6.6972163e-05
 -1.1959906e-03
 -1.5893404e-03
  1.2255236e-05
 -2.6289391e-04
 -9.3731214e-05
  1.1213905e-04
  2.5453119e-04
  1.9098075e-05
  2.1146066e-04
 -8.9362526e-05
  2.2897254e-04
 -5.6338194e-04
  1.3720266e-04
 -1.4236043e-04
 -4.6197211e-04
  1.7187554e-04
  7.8578007e-05
  3.1135278e-04
  2.8833933e-04
 -6.4582331e-04
 -2.1233452e-04
 -9.7419317e-05
  3.4425248e-04
 -2.9682520e-05
  9.5120922e-05
 -2.2708354e-04
 -7.5678097e-04
 -8.8494603e-04
  7.6049633e-05
  1.1661361e-01
  8.4281486e-01
  2.7086594e+00
 -2.3765380e+00
  1.4428782e+00
 -1.6863439e-02
 -1.2258101e-03
  1.0516997e-04
 -9.7713098e-03
 -2.1567346e-05
  6.1159819e-01
  2.0433404e-01
  1.9837542e-04
  1.6530385e+00
  3.8024306e-04
  3.0292535e-01
  3.6794603e-02
  1.5035337e-04
  1.2137339e-02
  8.2337208e-02
  3.9340478e-01
  6.7745474e-05
  8.1167012e-02
 -8.6534899e-01
  3.7243191e-02
  5.6888349e-04
 -2.4229437e-04
 -2.1336752e-03
  9.5062393e-01
 -4.3506795e-03
  1.4351816e-04
 -3.6387041e-04
  3.2410954e-04
 -2.2850787e-04
  7.4819056e-04
 -2.8138731e+00
  5.6261587e-01
 -2.4318567e-04
  7.7495232e-02
 -2.9101902e-01
  5.3887641e-01
  4.5671043e-01
 -4.9477123e-05
  1.2057898e+00
  1.3506771e-03
  1.8566489e+00
 -4.4776002e-01
  2.0041379e-04
  1.2771146e-01
 -2.9184015e-03
  2.7078642e-03
  1.4416704e-01
 -1.1081774e-04
 -1.7141782e+00
 -9.7465927e-05
 -9.0695819e-04
 -2.8367778e-03
  1.8113347e-04
  4.0681838e-04
 -3.3231347e-04
  1.7099341e-05
  4.7226811e-05
  1.8667409e-04
 -5.8187601e-05
  8.7552820e-04
 -1.5675249e-04
 -5.6804449e-04
  7.9061218e-05
  1.1199512e-04
  3.0640545e-04
 -1.3968388e+00
 -1.1132221e+00
 -2.6919003e+00
 -1.9092460e+00
  2.1807246e+00
  1.5508002e+00
 -7.9509133e-01
 -1.4192293e+00
  2.1115813e+00
 -6.7286592e+00
  1.4010352e-01
  3.9226894e+00
 -1.5348551e+00
 -4.0035665e-01
 -5.2298741e+00
  1.0014392e+00
  2.1702619e-02
 -4.1924974e-01
  3.0266989e-02
 -1.3934432e+00
  1.4936957e+00
 -8.2144755e-01
  1.5764165e+00
 -8.8657874e-01
 -6.9020754e-01
 -2.5728443e-01
  1.0296049e+00
  2.7116132e-01
 -1.1570664e-01
  8.2913876e-01
  1.2891038e-04
 -4.7919202e-06
  5.8902428e-05
 -5.8799182e-05
  5.1720865e-04
  3.4067364e-04
  1.5534220e-04
 -1.0759704e-04
 -3.7114118e-04
  2.5437942e-01
 -7.9572186e-05
 -1.1860516e-03
 -4.8882375e-04
 -6.4122838e-01
 -4.2298588e-04
  1.4516940e+00
 -6.0358952e-04
 -4.3309716e-04
 -9.3720198e-05
  4.1389035e-04
  1.8440880e-04
 -3.8552276e-04
  4.4012781e-05
 -3.3514592e-04
 -1.1662811e-04
  3.1006619e-04
 -2.0456134e-04
  1.6892607e-04
 -2.6381938e-04
 -2.5574656e-04
 -9.9648123e-06
 -3.6372177e-04
  1.2288830e-04
  2.1151833e-05
  3.0739277e-05
  3.1920645e-04
  3.8703365e-05
  4.1635547e-04
 -5.1801186e-04
 -4.7047870e-05
 -1.1131834e+00
 -7.1977746e-01
 -1.2567949e+00
 -2.2493200e+00
  6.9392806e-01
  1.6753605e-01
  2.4203265e+00
 -3.4743513e-05
  1.4467837e+00
  7.3006827e-01
 -1.5030077e-01
 -2.0802240e+00
 -3.7617597e-04
  1.8608377e+00
 -6.2651711e-04
  7.7714282e-01
 -6.1624163e-01
 -2.2726990e-05
 -1.1299901e-03
 -3.4361130e-01
  8.1550425e-01
  1.3572403e+00
 -7.7245750e-02
  2.3384283e+00
  4.8915511e-01
 -1.8350677e-01
  2.2564417e-04
  6.1469328e-01
 -3.2789618e-04
  1.8141404e+00
 -3.8663703e-01
 -3.5071283e-04
 -4.7983132e-05
  5.3898117e-04
  9.4513857e-04
 -3.7844548e+00
 -2.3594067e+00
 -1.2392645e+00
 -6.8272668e-01
 -1.9149158e+00
  1.0940535e-03
  2.1147478e+00
 -3.2726791e-02
  1.8298382e+00
 -5.3267472e-04
 -5.5340499e-01
  4.7281885e-01
 -2.7654646e-03
  4.1701012e+00
 -2.2574221e-01
 -9.8880574e-02
 -1.2597488e-01
 -4.7850147e-01
 -2.2857041e+00
 -9.8410748e-02
 -7.6927841e-01
 -3.8412076e-01
  1.6703072e-04
  4.4474813e-01
 -1.9903727e-01
 -4.1987336e-01
  3.3915654e-05
 -1.3966262e-04
 -1.0810649e-03
 -2.3351476e+00
 -1.8042448e-04
 -1.4840906e-04
 -5.3551263e-04
 -8.3666879e-01
 -1.0529567e-04
  7.6089644e-05
 -1.5243462e-03
  2.2205835e-05
 -9.0767688e-04
  4.7540045e-03
  8.7492015e-05
 -8.4414707e-05
  1.6333559e-04
  3.6579899e-05
  2.1613356e-05
  1.1088255e-04
  2.6806738e-02
  3.5449561e-05
  1.5346526e-06
 -2.1169694e-04
 -5.8411562e-01
  3.8396282e-04
 -1.6648530e-04
  1.6943322e-05
  2.1767552e-04
  6.0993206e-02
 -6.0689088e-04
 -9.6574851e-04
  1.0779267e-04
  9.9302815e-05
  3.0577308e-04
  2.0148165e-05
 -1.3832092e-04
  3.7322837e-04
 -6.4305728e-04
  3.7389284e-04
 -4.2593028e-04
 -1.2536941e-04
 -9.1205213e-05
  3.1457838e-04
 -6.4926152e-03
  1.0507828e+00
  6.4458624e-02
 -8.1795824e-01
 -9.2543530e-01
  9.3314755e-01
 -1.7316993e-01
  2.8948317e-04
  1.3628501e+00
  1.3534069e+00
 -8.7451619e-01
  8.4714121e-01
 -1.5786879e+00
  2.8925228e+00
  1.0545034e+00
 -7.9265994e-01
  3.3312410e-01
 -2.7152369e+00
  3.7501466e+00
  3.3856285e-01
 -9.6793121e-01
 -6.6721052e-01
 -1.5739350e+00
 -1.6655424e-01
  4.7575539e-01
 -1.3056688e-02
  5.1595777e-01
  9.3006641e-01
  1.0489646e+00
  2.1819973e+00
 -3.0265052e-03
  7.6890409e-01
  1.5222546e-04
  3.3425714e-04
  3.1127865e-04
  7.9024476e-01
  4.8229533e-01
 -1.4716446e-01
  4.4093890e+00
  2.5833189e+00
 -1.2409813e+00
 -7.9256982e-01
 -7.2988814e-01
  8.0838913e-01
